-0.071287
0.060977
0.039908
0.046624
-0.040000
0.061851
-0.004904
0.012687
-0.062636
0.018089
0.014235
0.012525
0.071777
-0.026576
0.054576
-0.050858
-0.030214
-0.038976
0.004192
-0.056743
-0.009624
-0.027901
-0.008106
0.051887
-0.017269
-0.060619
-0.001439
-0.066506
-0.012259
-0.052436
-0.022956
-0.031128
-0.020025
0.044047
-0.053803
0.011331
-0.029706
0.043666
-0.043214
0.076350
0.019015
-0.037710
-0.040553
-0.012356
0.079081
0.034397
0.053375
0.077222
-0.010895
0.003181
0.070230
0.015654
0.016947
-0.039497
0.020834
0.066165
-0.060264
0.067445
-0.012957
0.000328
-0.026601
-0.034835
-0.041835
0.038924
-0.069144
-0.005780
0.004532
0.003331
-0.069375
-0.057166
0.054131
-0.038651
0.048387
-0.012077
0.023482
-0.036921
0.049814
0.032263
0.070669
0.006426
0.058151
0.050023
0.070992
-0.023339
0.027204
0.071508
0.072911
0.054148
-0.016504
-0.019501
-0.024388
0.031219
0.026120
0.066183
-0.024838
-0.069134
-0.035139
0.075084
0.039578
-0.011173
-0.068642
-0.054085
0.073198
-0.028785
0.055927
-0.003526
0.062688
0.043804
-0.051477
0.001667
-0.069691
-0.045525
-0.059873
-0.074760
0.033750
0.017308
0.034477
-0.030758
-0.014132
0.070308
0.043125
0.078704
-0.037257
-0.016808
0.031575
-0.041411
-0.026421
-0.017119
-0.066106
0.017003
0.078139
0.021885
0.005471
-0.013428
-0.042717
-0.015832
-0.061889
-0.010254
0.053993
-0.056262
-0.029463
-0.064334
-0.050904
-0.043354
0.029694
-0.066543
-0.078345
0.041913
-0.072271
-0.029648
-0.065387
0.098937
0.078339
0.026908
0.026793
-0.023106
0.087669
0.072228
0.074855
0.042515
0.050688
-0.065265
0.058894
-0.050608
-0.046253
-0.018000
-0.039214
-0.077672
-0.005760
-0.079360
-0.011411
-0.075933
-0.079675
-0.069893
-0.007040
0.029198
-0.063397
-0.028579
0.023818
-0.041187
0.014772
-0.025940
-0.005699
0.032558
-0.047312
-0.040115
-0.073432
0.023418
-0.053308
-0.017098
-0.020749
0.000050
0.055846
-0.011700
0.072333
-0.043794
-0.039585
0.049070
-0.077721
-0.024417
-0.012931
0.097677
-0.029474
0.007287
0.021094
-0.020278
-0.063866
-0.033308
0.000007
-0.027239
-0.074250
-0.025735
0.027409
0.040523
0.025289
-0.054397
0.055482
-0.069483
0.046059
-0.026512
-0.068751
0.049104
0.071396
-0.083937
0.070162
0.079907
0.037739
-0.064818
-0.070714
-0.060311
-0.075651
0.000641
0.047524
-0.072816
-0.017008
-0.061098
-0.078002
0.072961
-0.078143
-0.067328
-0.002376
0.043979
-0.056107
0.022052
-0.080990
-0.023677
-0.058705
0.078613
0.035147
0.018672
0.042135
0.064385
-0.066761
0.015441
-0.033506
-0.022468
0.070853
-0.021985
0.068814
0.026466
0.009825
0.024651
-0.040159
-0.009812
0.041408
-0.015775
-0.066397
0.024102
0.044444
-0.023223
-0.046094
-0.070211
-0.061161
0.034735
0.036868
-0.044945
0.027465
0.083965
0.094118
0.020973
-0.020595
0.021904
0.027987
0.008770
-0.027954
-0.002218
-0.070742
-0.064781
0.020297
-0.068441
0.067949
-0.064139
-0.014640
0.005505
-0.039636
-0.043302
-0.045764
-0.069530
-0.028161
-0.018933
-0.025750
0.090642
0.000957
-0.169066
-0.147204
0.018504
0.106535
0.067836
-0.076656
-0.001132
-0.050949
0.145481
0.009936
-0.069045
-0.094738
-0.087463
0.144804
0.048742
-0.053220
-0.093630
0.034661
0.205594
0.208726
-0.042822
0.031719
-0.094571
-0.049140
0.028889
0.079133
-0.017416
-0.035532
-0.032751
0.116050
0.038754
-0.127923
-0.065661
-0.010727
-0.012254
0.141294
-0.034585
-0.073720
0.003676
0.120159
0.086639
0.081527
-0.000617
0.018722
0.114193
0.203517
-0.051964
-0.137481
0.060559
0.179990
-0.097332
-0.147956
-0.162532
-0.064852
0.083895
0.004266
-0.158578
-0.137443
-0.063588
0.181251
-0.022701
-0.087151
-0.157034
0.109060
0.111283
0.076576
-0.006189
-0.090915
0.168100
0.222319
0.063350
-0.025054
0.060644
-0.058409
-0.078439
-0.090772
0.055701
-0.046185
-0.015774
-0.024041
-0.098450
0.041632
-0.065853
0.034650
-0.040738
0.035157
-0.063873
-0.089439
0.028814
0.039624
-0.084137
0.014927
-0.052747
0.050672
0.038069
-0.038414
-0.056087
0.040336
-0.045981
0.109274
0.048163
-0.056531
0.012750
-0.020527
0.085427
0.089563
-0.024153
-0.046343
-0.090950
0.026619
0.107166
-0.042499
-0.082251
-0.103581
0.154950
0.119101
-0.099826
-0.016318
-0.003402
0.179733
0.173451
-0.074287
-0.157113
0.016424
0.263092
-0.035774
-0.346443
-0.216299
0.095687
0.179092
-0.114983
-0.221992
-0.252894
0.093612
0.277492
0.051905
-0.247981
-0.175599
0.175115
0.399678
0.161906
-0.064227
-0.095672
0.299582
0.486315
0.198381
0.004653
-0.108533
-0.019683
0.033194
0.015960
0.030514
0.018824
-0.016003
0.023650
-0.041915
0.009974
-0.090973
-0.007084
0.040390
-0.011118
-0.062930
-0.014134
0.070647
0.005341
-0.006095
-0.021006
-0.074266
0.144076
0.143655
0.082376
0.036073
0.022432
-0.032171
0.020688
0.083905
0.001257
0.049591
-0.092344
0.004907
0.043815
0.086301
0.047435
0.049133
-0.008467
0.120854
0.083074
-0.027977
-0.063815
0.107095
0.141929
0.087689
0.047356
-0.062308
0.123784
0.147721
0.101982
-0.063224
-0.112662
-0.053440
0.048473
0.025354
-0.032472
-0.110752
0.053607
0.023422
-0.015353
-0.115811
-0.054845
-0.014502
-0.027182
-0.084840
-0.115810
0.084693
0.157628
0.061402
-0.014537
-0.114935
0.094144
0.154000
0.038418
0.023558
0.041383
-0.069343
0.037512
-0.064486
0.061502
0.049201
0.058271
-0.069718
-0.050302
-0.060343
0.037416
-0.011754
0.032642
-0.027018
0.034341
-0.009388
-0.071066
-0.050609
-0.059806
-0.074072
0.039352
-0.065031
0.054540
-0.059652
-0.066093
-0.041966
-0.047387
0.020076
0.088776
-0.068583
-0.007293
0.021692
-0.015809
-0.007283
-0.049919
-0.075485
0.022591
0.001982
0.098733
0.027577
-0.071349
0.017160
0.102664
0.111096
-0.010471
-0.048548
-0.067194
-0.008406
0.108068
0.009277
-0.029268
-0.093599
-0.012648
0.062549
-0.059398
-0.156585
-0.061477
0.011614
0.098956
-0.017435
-0.183545
-0.065380
0.102901
-0.015729
0.015962
-0.097589
0.011151
0.190371
0.055684
-0.047872
-0.089757
0.126547
0.289097
0.102796
-0.086838
0.005468
0.054107
-0.026619
-0.039623
-0.034203
-0.012717
0.022991
-0.039110
-0.021987
-0.039563
0.071100
-0.045575
0.062139
-0.018778
-0.091889
0.017711
-0.064550
-0.000450
-0.018625
-0.026039
-0.008334
-0.019592
-0.083707
-0.014035
-0.054560
0.015678
0.071890
0.104953
0.058381
-0.076803
-0.048097
0.041601
0.130179
0.047580
-0.022375
-0.085961
0.054493
0.110313
0.004219
0.034946
0.052990
0.026736
-0.042790
-0.026295
-0.025303
-0.033485
-0.071566
0.009064
0.003707
-0.092804
0.068498
0.127931
0.110051
-0.073883
-0.047966
0.040885
0.142743
0.113361
0.039567
-0.053361
-0.006256
0.047048
0.079425
-0.031518
-0.066012
-0.004094
-0.059660
-0.027080
0.051957
0.020577
-0.050151
-0.063619
-0.045703
-0.108034
-0.050776
0.034642
-0.042892
-0.004231
-0.024245
-0.052251
-0.065359
0.072133
-0.064517
-0.003105
0.056627
-0.049053
-0.000743
0.065037
-0.030369
0.002517
0.009691
-0.036447
0.028465
-0.073216
0.055143
0.062675
-0.013242
-0.042714
-0.029595
-0.008286
0.026845
0.125884
0.085014
-0.044665
-0.045232
-0.058700
0.072757
-0.024357
0.088741
-0.024042
-0.079987
-0.008825
0.092357
-0.006686
-0.060006
-0.079717
0.058012
0.066087
0.001651
0.055284
-0.042109
-0.085041
-0.017251
-0.082126
-0.024532
0.172810
0.099210
0.153103
-0.041088
-0.116617
0.080892
0.148003
0.190043
-0.065347
-0.045156
0.004963
0.079030
0.067430
0.004647
-0.058991
-0.091541
-0.058640
0.053981
-0.113115
-0.066379
-0.055944
0.015579
-0.078210
-0.062064
0.058797
0.044328
-0.087231
0.019260
0.054729
0.050263
0.090108
0.002590
-0.076487
0.078814
0.054474
0.081997
-0.073288
0.031846
0.152754
-0.017040
-0.107722
-0.103166
0.046933
0.030127
0.081150
-0.115067
-0.135098
-0.032006
0.135380
0.051928
-0.013119
0.022867
0.054317
-0.037499
0.047086
0.066894
0.075935
-0.016195
-0.013313
0.046189
0.042178
0.081563
-0.035353
0.028913
0.160539
0.054097
-0.094262
0.002072
-0.067081
0.116743
0.051596
-0.025845
-0.088499
-0.061252
-0.004419
0.080630
0.051156
-0.052831
-0.061620
-0.065673
-0.028258
0.011805
-0.070881
0.063633
0.117717
-0.013801
0.016970
-0.018948
0.136207
0.064702
-0.002912
-0.135540
-0.026405
0.091113
0.150229
-0.121111
-0.226955
-0.111725
0.102268
-0.004093
-0.071921
-0.067922
-0.043126
-0.031778
-0.054663
-0.080306
-0.048183
0.002181
-0.052077
-0.027007
0.024635
-0.044106
-0.043890
-0.021821
0.071664
0.071839
-0.041946
0.069279
0.031248
0.030743
-0.074847
0.041969
-0.034593
0.090892
-0.069741
0.020704
0.052405
0.033509
-0.038325
0.008189
0.043787
0.024985
0.044999
-0.040996
-0.017264
0.033662
-0.061463
0.021858
-0.039518
0.030774
-0.025311
-0.073286
-0.101404
0.010329
-0.005276
-0.024751
-0.145150
-0.099945
-0.102723
0.023833
0.063848
0.039472
-0.106590
-0.040534
-0.018515
-0.020734
0.053470
-0.096881
0.005196
0.076069
0.017664
0.025510
0.028513
0.215742
0.243743
-0.078870
-0.089083
-0.056083
0.202324
0.244581
-0.207338
-0.285982
-0.179153
-0.031028
0.069619
-0.034131
0.056308
0.057515
0.105693
-0.014214
-0.115262
0.067487
0.114471
0.027356
0.045945
0.016596
0.014831
0.097807
-0.028182
-0.067326
0.027009
-0.003824
0.042647
-0.043056
-0.023631
0.115888
0.088859
-0.050494
0.012967
-0.153492
0.020179
0.017718
-0.009106
0.029016
0.069471
0.039259
-0.134239
0.027903
0.052805
0.089069
-0.013951
-0.097242
-0.043052
-0.024383
-0.030547
0.014248
-0.044628
0.020076
0.074460
-0.014517
-0.025947
-0.054270
0.064282
0.061570
-0.023319
0.012721
-0.029186
0.077463
0.190052
0.022650
-0.117757
-0.079986
0.050655
0.138950
0.083805
-0.071102
-0.089135
0.055286
0.054226
0.002325
-0.063955
0.098620
0.071878
-0.009966
-0.080214
-0.033862
0.004596
0.128129
-0.048339
-0.069156
0.057693
-0.022097
0.065862
-0.043267
0.041008
-0.086675
-0.028117
-0.037584
0.088686
-0.041984
-0.004249
0.031990
-0.076781
-0.029552
0.024866
0.059625
-0.006610
-0.000818
-0.059902
0.062151
0.068629
-0.059052
-0.027133
-0.020941
-0.042902
-0.082615
0.044434
-0.013008
0.147174
0.018841
0.038252
-0.002187
0.013176
0.020187
0.125242
-0.011064
-0.079072
0.037015
0.061137
0.084146
-0.018141
-0.076137
0.103408
-0.036358
-0.044188
0.080184
-0.057117
-0.030889
0.087753
0.020775
-0.122028
-0.125600
0.104039
0.335302
0.227065
-0.190020
-0.197091
0.144350
0.213966
0.152316
-0.237368
0.012472
0.136748
0.069399
0.084751
-0.005185
0.144774
0.080327
0.022576
-0.124888
0.012394
0.220680
0.137415
-0.083991
-0.286341
0.111304
0.073240
-0.006976
0.061192
0.028814
0.118831
0.098706
-0.047180
-0.069627
-0.058208
0.095799
0.082194
-0.048833
0.042661
-0.090695
0.110624
-0.045322
-0.054951
-0.042229
-0.050101
0.027567
0.051913
-0.045079
-0.055728
-0.036119
0.007030
0.065322
0.112234
0.128306
0.029800
-0.129652
0.061174
0.087185
0.036602
0.027251
-0.110882
0.078596
0.067166
0.006970
-0.073036
0.003286
-0.052210
0.073495
0.010062
0.020783
-0.114443
-0.026701
0.045149
0.023240
0.076949
0.161756
0.297356
0.166725
0.096887
0.118581
-0.004477
0.115087
0.109627
0.009471
-0.010276
0.068461
0.040996
-0.043005
-0.117009
-0.012698
-0.044409
-0.043109
0.026517
-0.091415
-0.070617
-0.048289
-0.002380
-0.047287
0.066975
0.036583
-0.027452
0.084472
-0.039856
0.080078
0.070056
0.069983
-0.014701
0.022450
-0.002436
0.005740
0.031732
-0.095165
-0.106589
-0.002886
-0.060806
-0.003982
-0.001115
-0.042014
-0.003139
-0.018862
0.049222
-0.018830
0.036559
0.035923
-0.017919
-0.078971
0.090804
0.185996
0.031194
0.122810
-0.122309
0.032795
0.136922
-0.076209
0.068083
-0.001185
-0.056801
0.023705
-0.095933
-0.078041
-0.068577
0.071194
-0.036775
-0.047746
0.023301
0.001525
-0.044523
-0.059386
-0.036746
-0.033891
0.246450
0.442156
0.367536
0.208689
0.160125
0.096766
0.144598
0.141947
-0.066835
-0.049735
-0.060656
0.129544
-0.063419
-0.129388
-0.109930
-0.057448
0.059417
-0.079808
0.004017
0.002663
-0.100319
0.067716
-0.116331
0.021957
0.074567
-0.007848
0.118558
-0.029524
-0.033346
-0.021579
0.073987
0.055232
0.042551
-0.024236
-0.060155
0.057182
0.016028
0.058608
0.014122
0.039568
-0.004304
0.085992
0.014984
-0.053363
-0.094274
-0.023506
0.068478
0.110746
0.043577
-0.041841
0.051857
0.047002
0.107607
-0.015150
0.019624
-0.088766
0.040297
0.048116
0.070225
-0.076249
0.045892
-0.049287
0.041400
-0.053860
-0.079624
0.022783
-0.017437
0.110245
-0.004655
0.040245
0.065309
0.047273
0.086506
0.000964
-0.055033
0.003124
0.004659
0.121773
-0.086306
-0.002187
-0.021468
-0.048458
0.002638
-0.037989
-0.006649
0.034554
0.056665
0.064792
-0.062833
-0.144303
0.061624
0.125357
0.103788
0.013653
-0.094291
0.030606
0.032350
0.141018
-0.057602
-0.034095
0.066416
0.018730
0.070143
0.067624
0.019819
0.071437
0.050582
0.009826
0.027188
-0.061741
-0.043690
0.029174
-0.029322
-0.071261
0.008667
-0.034703
-0.027466
-0.013529
0.050830
-0.030132
-0.076657
0.081629
0.032976
-0.060160
-0.017854
-0.032714
0.050890
0.046394
0.045379
0.008396
-0.040190
0.065250
-0.012376
-0.063584
-0.024343
-0.065066
0.037518
-0.039795
0.066214
-0.021592
-0.015237
0.010238
0.068219
-0.050525
-0.029486
-0.057405
0.071083
0.045562
0.040574
0.009986
0.077490
0.163973
0.105141
-0.082301
-0.062566
-0.056471
0.042447
0.045981
-0.134395
-0.040620
-0.019063
0.047514
0.048981
-0.147721
-0.147259
-0.081769
0.156839
0.041869
-0.060085
-0.061259
-0.007437
0.115988
0.215645
0.071792
-0.116603
-0.000737
-0.028648
0.141475
0.094070
-0.008228
-0.027425
0.018485
0.000331
0.021023
-0.092134
0.013583
-0.041610
0.067979
0.005489
-0.095424
0.033014
-0.051924
0.107882
0.129317
-0.053653
0.093749
0.134931
0.153913
0.000322
-0.031038
-0.142077
-0.092751
0.015004
0.039305
0.096611
-0.037032
-0.104597
-0.045887
0.072677
0.074964
-0.020921
-0.061916
-0.020034
-0.019758
0.028778
0.000691
0.050201
-0.071393
-0.013293
0.136097
-0.018345
-0.027816
0.000593
0.047169
0.105340
0.014667
0.036358
0.138528
0.069887
-0.085614
-0.037612
-0.092160
-0.022295
0.055299
-0.048835
-0.120942
-0.073887
0.090816
0.138844
0.028759
-0.040840
0.063860
0.029223
0.189849
0.063627
-0.023732
0.093102
0.169728
0.089816
0.108627
-0.055762
0.017405
0.062396
-0.049395
0.032850
-0.027482
-0.086121
-0.047093
-0.012641
0.024875
0.010391
0.027619
-0.037002
-0.089167
0.023198
-0.065108
-0.025772
-0.039987
-0.002263
-0.028421
-0.048406
0.025711
-0.029317
0.005973
-0.016578
-0.036308
0.009269
-0.053441
0.113429
-0.047452
-0.099663
0.009015
-0.052601
0.111314
0.025849
-0.045350
-0.045855
-0.008708
-0.027422
0.104132
-0.020418
-0.028048
0.026436
0.107461
-0.003952
0.005513
-0.020903
0.027101
0.138513
0.066747
-0.035253
-0.086509
0.161651
0.115222
-0.076246
-0.110393
-0.089911
0.082382
0.082066
0.024644
-0.128088
-0.038459
0.058547
0.059377
-0.026090
0.015214
0.084312
0.180780
0.213167
0.006092
-0.045738
0.184027
0.273705
0.240982
0.072337
-0.038312
0.026161
-0.031918
-0.096938
-0.055952
-0.050575
-0.016828
0.030492
-0.075695
-0.059849
-0.024536
0.003751
0.091001
-0.028958
0.004028
0.020902
0.042646
0.057209
0.062614
0.061614
0.045663
-0.111665
-0.029840
0.061372
-0.074872
0.063965
-0.074820
0.055457
0.036692
-0.092595
0.087593
0.060500
0.074801
-0.013533
0.063531
0.080945
0.046744
-0.009457
-0.007165
-0.044022
0.056197
0.028631
0.003579
-0.069803
0.041877
-0.027603
-0.054472
-0.054465
0.007545
-0.014092
0.071752
0.072008
0.007810
-0.034532
-0.020133
-0.030381
0.035428
0.043070
-0.041729
0.063053
-0.045878
-0.033029
-0.023447
0.036093
0.059189
-0.011702
-0.002898
0.042345
-0.012620
-0.072279
0.000784
-0.118992
0.025774
-0.011566
-0.023430
-0.055634
0.075249
-0.040111
0.052624
-0.035871
-0.074108
-0.056025
0.011437
-0.051491
-0.036137
0.017218
0.023180
0.032970
-0.071321
-0.074818
0.036265
-0.059534
0.011050
0.053732
0.041770
-0.046203
-0.008834
0.036171
0.003532
0.050380
0.010715
-0.071289
-0.044975
0.000263
-0.058437
-0.023530
-0.027876
0.078647
0.032637
-0.066594
-0.059302
0.035018
0.107688
0.092442
-0.050797
-0.005630
-0.075961
0.008044
-0.049763
0.065098
0.020940
-0.086198
-0.103430
0.036075
-0.018174
-0.081575
-0.033964
-0.082965
-0.098805
-0.114915
0.102028
-0.019230
0.019266
0.042032
-0.052227
0.099396
0.160763
0.063030
0.082271
0.052506
0.063788
0.022520
0.048293
0.125009
0.057786
-0.145667
-0.098853
-0.069717
-0.012299
0.048895
0.000088
0.136117
0.014573
-0.134653
-0.137708
0.051104
0.034347
0.072318
-0.005439
-0.122310
-0.007228
-0.005728
-0.026083
0.074854
-0.064186
-0.025179
0.003998
-0.068295
0.010003
-0.042289
-0.019820
-0.065100
0.046838
0.069887
0.049999
-0.087183
0.080330
0.047668
0.013157
0.013264
0.009085
0.055808
0.061191
-0.047267
0.067657
-0.026340
0.059992
0.084888
0.045525
0.014972
-0.127273
0.036100
-0.025447
0.041505
0.023275
0.025326
-0.019863
0.039312
-0.091913
0.078590
0.031967
0.099878
0.147468
-0.087068
-0.149509
-0.048297
0.061779
0.079166
0.013595
-0.034466
0.000607
0.022339
0.012454
0.043111
-0.027231
-0.036654
0.021980
0.007653
0.088646
0.048195
-0.055315
-0.079270
0.046588
0.035812
-0.048961
-0.026182
0.003101
-0.071664
-0.076008
-0.080789
-0.061919
0.075359
-0.000603
0.057388
0.048487
0.054368
0.046318
-0.044265
-0.067698
-0.000514
0.053407
0.072527
-0.038086
-0.062379
0.037763
0.034438
0.000574
0.078643
-0.071294
0.071616
0.045122
0.111469
0.006451
0.083222
-0.134779
-0.004575
0.051454
-0.010182
0.040305
-0.003084
0.017694
0.026660
0.110359
-0.039509
0.067287
0.022517
-0.043586
-0.007065
-0.058756
-0.027611
-0.070965
0.066918
-0.063020
-0.023703
-0.024149
0.080649
0.201281
0.166018
-0.037415
-0.329877
-0.061215
0.220261
0.178498
-0.023797
-0.095377
-0.018154
0.180524
0.101676
0.100950
0.028531
0.000754
0.051326
0.046721
0.114827
0.060055
-0.153427
-0.030899
-0.015758
0.106135
-0.017318
-0.082130
0.104869
0.133001
0.082785
0.003763
0.002913
0.044404
0.162834
0.027277
-0.072884
-0.067237
-0.076823
0.117422
0.059261
-0.075237
-0.075630
-0.072153
0.169661
0.105690
0.010397
0.008926
-0.074975
0.137532
0.034719
-0.044532
0.082269
0.053497
0.031090
0.159087
0.161465
-0.033521
-0.096114
0.061076
0.063825
0.114008
0.024124
-0.021699
0.046759
0.035373
0.038929
-0.095156
-0.063442
-0.091869
0.094014
0.106607
-0.011272
-0.065869
0.020956
0.090223
0.122837
-0.047750
0.072624
0.147593
0.136384
0.037054
-0.105797
0.011253
0.026650
0.152330
-0.059945
-0.100778
-0.080962
-0.014353
0.011492
0.026074
-0.083039
-0.031586
0.097299
0.136811
-0.001961
-0.082603
-0.098403
0.021383
0.111544
-0.001361
-0.069641
0.005742
0.058589
-0.011958
-0.043063
-0.039044
-0.065537
0.004209
0.038123
0.049257
0.061281
0.018760
-0.073528
0.004711
-0.061844
-0.078391
0.004250
-0.014299
-0.080415
-0.108293
0.026081
-0.033320
0.035079
0.068960
-0.082391
0.061877
-0.051592
0.021835
0.164304
0.116366
-0.102704
-0.068482
0.039247
0.132676
0.086036
-0.132488
-0.116828
-0.100911
0.000309
0.064623
-0.087338
-0.046078
0.045292
-0.015448
-0.007193
-0.004591
0.015839
-0.023533
0.116599
0.019314
-0.090243
0.057919
0.282800
0.209743
0.024273
-0.183076
-0.118162
0.189220
0.135829
-0.059047
-0.298064
-0.128031
0.131033
0.179668
-0.127992
-0.306256
-0.235510
0.106121
0.153743
-0.048970
-0.219021
-0.138013
0.128594
0.209431
-0.043535
-0.057288
0.037662
-0.070450
-0.045075
0.042825
0.062045
0.015025
-0.064100
-0.026747
-0.002667
-0.002644
-0.070092
-0.004086
0.062316
0.023865
-0.021268
-0.008375
-0.080351
0.057695
-0.057440
0.045093
0.001742
0.008632
-0.011140
-0.032926
-0.080855
0.013040
0.075898
-0.037045
0.072870
-0.025327
0.042881
-0.065534
0.078189
0.070483
-0.028640
0.014960
-0.056615
-0.034183
0.039944
-0.052136
0.053562
0.021032
-0.006654
-0.070949
0.044512
-0.038594
-0.022625
-0.046141
0.082748
-0.002017
-0.035360
-0.047762
-0.060861
-0.070433
-0.002176
0.022847
0.032897
0.012399
-0.074467
-0.003091
0.062973
0.069024
0.058556
0.049247
0.012165
-0.041762
-0.024483
0.029898
0.009221
-0.055391
0.019570
0.070173
-0.033127
-0.036460
-0.030546
-0.063650
0.051895
0.055943
0.077711
-0.011619
0.007920
-0.018077
-0.075901
0.077998
0.049835
-0.078615
-0.014781
-0.042064
0.017002
-0.062417
0.060823
0.049100
-0.034745
-0.054349
0.019833
-0.061719
-0.044753
-0.050404
0.074550
-0.029998
-0.065708
-0.050734
0.007895
-0.059369
-0.069310
0.000790
0.007908
0.017022
0.008061
0.055840
0.042731
0.061402
0.031909
0.023309
0.029371
-0.030783
-0.075945
0.009416
0.033004
-0.024835
0.059934
-0.015886
-0.005030
0.055848
-0.014603
-0.016481
-0.054501
0.062400
0.004898
0.003470
0.039148
-0.083597
0.065323
0.068027
0.032216
-0.067592
-0.010872
0.043509
-0.027291
-0.001939
0.036886
-0.075535
0.025162
-0.006294
-0.069337
-0.067509
0.059112
0.008455
-0.012959
0.029752
-0.067147
-0.049777
-0.050378
-0.070343
-0.018612
-0.042447
0.003736
0.015481
0.082040
-0.020276
0.031633
-0.032919
-0.034495
0.055302
-0.070824
-0.025813
0.038817
0.042031
-0.005081
-0.021688
0.075817
-0.049796
0.015146
0.036459
-0.067628
-0.031892
0.046029
-0.046995
-0.030879
-0.062000
0.016434
-0.046176
0.081508
-0.066208
-0.000704
-0.075399
0.010253
-0.005152
0.003545
0.050466
0.078856
-0.041303
0.049306
-0.046900
-0.051729
0.039590
0.029352
0.003418
-0.002990
-0.051864
-0.076964
0.044136
0.010359
-0.038648
0.073606
0.013659
0.037823
-0.048496
0.040613
-0.032758
-0.016327
-0.064507
-0.028828
-0.030711
0.005973
0.079532
-0.074077
-0.001800
-0.069800
-0.021648
0.001034
-0.030923
-0.000882
-0.044337
0.068339
0.019849
-0.007598
-0.079068
0.007797
-0.081386
-0.020563
-0.071376
-0.006929
0.077704
-0.006967
-0.073010
0.023742
0.026004
0.036394
-0.060221
0.013180
-0.078858
-0.019186
-0.009653
0.024263
-0.010403
0.072000
0.017597
-0.047029
0.040849
-0.005484
0.030062
-0.079904
0.076730
0.063759
0.005003
-0.046042
0.005361
0.021109
-0.050117
0.046014
0.009446
-0.037573
0.031849
0.054703
0.067397
-0.031488
0.017422
0.001217
-0.036103
0.044350
-0.013804
0.054762
-0.051458
-0.034476
0.018906
0.021708
-0.049580
0.055403
-0.038683
0.036264
-0.001532
0.004508
0.028352
-0.024224
0.027169
-0.032574
0.001544
-0.067713
0.017548
-0.048808
0.063440
-0.039154
0.075233
-0.000974
0.020612
-0.074153
0.012610
-0.000266
0.087257
0.071543
0.094646
-0.012043
-0.124147
-0.034197
-0.031477
0.053296
0.000755
-0.015234
0.032065
0.001002
0.045560
0.056567
0.029645
0.014976
-0.087453
-0.016151
0.133081
-0.087404
-0.047915
-0.055220
-0.071679
0.064090
0.075973
-0.050521
-0.032084
0.038495
0.153197
0.094275
0.050328
-0.056959
0.048690
0.030541
0.028353
0.071750
-0.031542
0.057322
0.050648
0.139265
0.015469
-0.080819
-0.098891
-0.043860
0.086952
0.060284
-0.058624
-0.141893
-0.049372
0.076471
0.082900
0.158306
0.062116
0.031953
-0.178414
0.002523
0.106005
0.159383
0.052189
-0.087264
-0.024699
0.032611
-0.034963
0.055315
0.055360
-0.069638
-0.141956
-0.009239
0.094266
0.020543
0.013599
-0.045270
-0.189378
0.056681
0.088516
-0.037728
0.050604
0.062832
-0.023037
-0.092113
0.064713
-0.078756
0.017001
0.076380
-0.064150
0.004601
-0.079757
-0.004495
0.041624
-0.006385
-0.034495
-0.082230
0.059976
-0.008895
-0.009128
-0.016117
-0.007019
0.064971
-0.063715
0.029332
-0.084720
0.113838
0.030173
0.015828
0.041487
-0.084450
-0.026355
0.110497
0.001790
0.020460
0.085482
0.017631
0.059391
0.067166
0.031433
0.006949
0.050196
-0.027199
0.079248
0.069542
-0.049926
-0.103332
-0.105494
-0.043995
0.077355
0.022955
0.263349
0.253529
0.148386
-0.209867
-0.023397
0.083280
0.221983
0.172750
-0.140337
0.125453
0.076139
0.076847
0.238664
0.077724
-0.042194
-0.171038
-0.137421
0.179573
0.045728
-0.033180
-0.206725
-0.285354
-0.075533
0.000631
