-0.030169
0.063682
-0.054172
0.123354
0.074455
0.084368
0.036684
0.033093
0.051228
0.022952
0.049657
0.026869
-0.028483
0.000606
0.044696
0.023071
0.011642
0.107407
0.045641
-0.046832
-0.051628
0.037657
0.065879
0.039551
-0.036467
0.034946
-0.030087
0.016800
-0.084735
0.005796
0.032474
0.019867
-0.011990
0.018692
-0.022458
0.093846
0.010228
0.036595
0.055250
0.006642
0.077055
-0.005046
0.012195
0.060231
-0.035934
0.030244
0.002782
-0.034466
0.013638
0.003846
-0.011960
-0.044462
-0.026108
0.016571
0.041728
0.071958
0.003994
-0.036399
-0.017682
0.009371
-0.007240
-0.018569
0.116276
0.024567
0.046051
0.069761
0.020720
0.008667
-0.076698
0.044650
-0.072088
-0.036820
-0.102642
-0.006384
0.022027
-0.036475
0.061166
-0.064258
-0.047035
0.023904
0.132018
0.052640
0.054877
0.003992
0.118525
0.019374
0.098063
-0.034355
-0.040624
0.033942
0.035441
-0.077500
-0.000924
0.077890
0.007468
-0.031117
0.036555
-0.030554
0.070508
0.178382
-0.009633
0.037576
-0.081431
-0.057363
0.099811
-0.044015
0.072734
0.047067
0.127176
0.023489
-0.038088
-0.000270
0.012810
0.040133
0.090246
0.035035
-0.000967
0.029064
-0.078648
-0.077508
