-0.069361
0.039631
0.056918
-0.049269
0.040716
-0.121026
-0.021964
0.056892
0.110667
-0.114416
0.014879
-0.119853
0.147499
-0.181283
0.052105
-0.077001
-0.075150
-0.013412
-0.021321
-0.177621
0.161632
0.057460
0.046106
0.133834
0.110634
-0.158631
0.115249
-0.050279
-0.156258
0.102233
-0.110361
-0.154917
-0.028819
-0.003308
-0.044303
0.047577
-0.115556
0.066775
-0.042332
0.418903
-0.082101
0.251227
-0.003638
0.046627
-0.264049
0.096811
-0.109664
-0.025215
0.185327
0.328136
-0.111731
0.030355
-0.231532
0.318015
-0.055364
0.115876
-0.083306
-0.057887
0.100976
0.108689
0.116812
0.147486
0.064357
-0.114475
-0.129880
0.053493
-0.201559
0.042740
-0.002575
-0.104678
-0.248344
-0.133958
-0.105876
-0.017607
0.116760
0.098834
-0.090023
-0.188818
0.017264
-0.005735
0.040353
0.015343
-0.002151
0.091664
0.000445
0.058101
0.185073
-0.232012
-0.167164
-0.050548
-0.267014
-0.097811
-0.037443
-0.207903
-0.000493
-0.108761
-0.261799
0.072149
0.095738
-0.005144
-0.079828
0.033708
0.146332
-0.180324
-0.056360
0.102584
-0.027821
-0.130972
0.097590
0.134439
-0.048840
-0.122359
0.189268
-0.067930
0.010952
-0.113196
0.300582
0.030866
0.182256
0.077190
0.122027
0.015523
-0.339579
-0.005315
-0.043206
0.121468
0.024702
0.012640
0.139891
-0.206034
-0.082990
-0.022382
0.254937
0.002230
0.029343
0.113395
-0.225031
-0.158143
-0.087802
-0.011937
-0.065005
0.009441
0.091097
0.189614
0.101183
0.129700
-0.037296
-0.045892
0.004933
-0.163671
0.065864
0.212332
-0.085090
0.106753
0.300428
0.584335
0.220700
-0.099015
0.071808
-0.025691
0.185956
-0.061724
-0.025411
-0.041238
-0.348903
-0.270757
0.188468
-0.095794
0.049876
0.052441
0.127283
0.206487
-0.249995
-0.032985
0.246052
-0.093100
-0.073939
0.070656
-0.079704
-0.059716
-0.140450
0.166843
0.151485
-0.237443
-0.016237
0.014970
0.025454
0.046867
-0.045513
-0.019812
0.202035
0.046459
-0.017580
-0.091427
0.235138
-0.098415
0.038286
-0.017596
0.090179
-0.193615
-0.086494
0.077893
0.173667
0.094771
-0.001222
-0.087269
-0.132178
-0.284260
0.014366
0.122274
0.281265
0.074541
-0.089743
0.076867
0.078107
-0.022902
0.103359
-0.269047
-0.054664
-0.232408
0.053209
0.353849
-0.018337
-0.030815
0.105714
-0.109390
-0.025408
0.120545
0.021110
-0.291520
-0.031930
-0.080981
0.030827
0.058884
0.111461
-0.051303
-0.163441
-0.026861
-0.083362
0.051228
-0.224493
0.088774
0.003776
0.230772
0.041000
-0.093966
-0.013977
0.000277
0.156877
-0.010211
-0.264160
-0.074081
0.039566
-0.112125
-0.249179
-0.077173
0.050844
-0.151536
-0.017728
-0.197503
0.031275
0.131980
0.005668
0.123903
0.151257
0.116486
0.032715
-0.219489
0.015903
-0.006825
-0.064153
-0.142461
-0.119446
-0.042188
-0.035284
0.202655
0.012063
0.120052
0.012426
0.012682
0.107167
-0.102732
-0.032672
0.162207
-0.011373
-0.115235
-0.135203
-0.126814
-0.058329
-0.061685
-0.196424
-0.040322
-0.073650
0.165878
0.111552
-0.071343
0.092027
-0.048190
-0.009197
-0.027142
-0.005936
0.010631
0.108211
0.015568
0.281273
0.196812
0.237261
0.077300
0.097041
-0.032499
-0.165146
-0.092051
-0.075807
-0.053638
0.090379
-0.040422
0.196694
0.015188
0.260132
0.199861
-0.122289
-0.117440
0.228613
-0.089409
0.044242
0.073159
0.025684
-0.093232
-0.101699
0.022865
-0.081978
-0.055709
0.063963
0.040002
-0.117041
0.087001
0.182782
-0.043614
-0.022505
0.030692
-0.062937
0.119749
0.154389
-0.091603
-0.026723
0.063608
0.051990
-0.060305
-0.155999
-0.083018
0.059658
0.056144
0.117648
-0.044157
-0.210587
-0.145047
-0.284760
-0.184850
-0.183996
0.094215
0.190281
0.218680
0.047728
0.041493
0.099066
0.173665
0.078811
0.047143
-0.084347
-0.125966
0.237668
-0.066679
0.005257
0.151136
0.133382
0.070679
0.115506
0.215282
-0.096183
-0.013674
0.027602
-0.281854
0.081476
0.002013
-0.103449
-0.358855
0.011358
-0.000527
0.041642
0.198980
-0.184245
-0.155809
-0.066570
0.063247
0.078588
-0.211574
-0.046907
-0.131787
0.058770
-0.050529
-0.058392
0.113574
-0.005680
-0.151514
0.109354
0.055234
0.033379
0.028063
-0.029298
0.064575
0.110333
0.036132
0.059232
-0.077341
0.043714
-0.091899
0.121436
-0.146893
0.246117
0.003261
-0.179979
-0.148905
-0.085443
0.430654
0.126850
0.158044
-0.011504
-0.122468
-0.039090
0.113734
0.045376
-0.267604
0.047043
-0.048777
-0.339040
0.195921
0.116011
0.109860
0.217862
-0.057688
-0.043246
0.145960
0.271582
-0.401210
0.038536
0.090078
-0.058513
0.217228
0.009056
0.189904
0.302042
0.040517
-0.047349
-0.010015
-0.360939
-0.177710
-0.072728
0.071843
0.079233
-0.049817
0.004608
-0.409311
0.081863
0.081042
-0.082416
0.068592
0.171309
-0.082666
-0.206119
0.112135
-0.178116
0.063122
-0.050757
-0.149721
0.173549
0.007269
0.055064
0.049744
0.202749
0.091569
-0.329617
0.050806
0.108140
-0.084232
0.072968
-0.148863
0.186963
-0.132058
-0.004814
0.065195
0.057533
-0.175162
0.334826
0.120647
-0.158184
0.050945
0.166979
-0.170247
-0.048056
-0.002367
-0.146602
0.383712
0.020578
-0.083806
0.001331
-0.027521
0.030969
0.038459
0.313743
0.251967
-0.007548
0.008985
0.236931
0.095865
-0.069563
0.106115
0.061016
-0.310407
0.182269
0.045162
0.084403
0.130486
0.073674
-0.052937
0.076838
0.056402
-0.105521
-0.014211
-0.139375
-0.222407
0.148951
-0.167340
0.274189
-0.028853
-0.092199
-0.240022
0.022590
0.053845
-0.026878
-0.069094
0.021265
-0.010739
0.177102
0.023559
0.223870
-0.010646
-0.255958
0.083050
-0.195340
-0.092066
-0.030153
0.033993
0.102115
0.398816
0.137754
-0.145809
-0.046585
0.271610
0.067389
-0.022166
0.029077
0.095203
-0.017156
-0.247458
0.081737
-0.088947
0.073296
0.089616
-0.109805
0.329973
-0.249075
-0.023596
0.020264
0.218721
-0.174210
-0.005957
-0.059440
-0.051476
-0.066134
-0.205855
-0.052272
0.005651
0.002367
0.051718
0.315606
0.047992
0.202461
0.069717
-0.143629
-0.215313
-0.007838
0.036749
-0.058529
0.144329
-0.093149
0.267864
0.034657
-0.246482
-0.072169
0.147290
0.005544
0.171777
-0.063139
-0.002092
-0.042870
-0.090328
-0.170454
0.073421
0.137173
0.079065
-0.220528
-0.219751
-0.028262
0.026621
-0.232648
0.167397
0.004885
-0.126175
-0.296331
0.198283
0.020003
-0.092447
-0.104202
0.090216
-0.021846
-0.035770
0.001119
0.061882
-0.036756
-0.205960
0.132580
-0.077817
0.125935
0.195685
0.010447
-0.061096
-0.255962
-0.088531
0.200768
-0.099377
-0.066970
-0.414772
0.115251
0.080303
0.078893
-0.029454
0.126053
0.133945
0.079400
0.145618
-0.204191
-0.056602
0.152746
0.061704
0.118129
-0.235193
-0.052255
0.025195
-0.076919
-0.157532
0.074800
-0.053513
-0.186934
0.089127
0.069227
0.221602
0.096262
0.100646
-0.074651
-0.074019
-0.049632
-0.010679
0.035318
0.180684
-0.111532
-0.006247
-0.156559
-0.342700
-0.005365
0.022636
-0.247357
0.033080
0.006186
-0.068053
0.243426
0.049774
0.039125
0.092020
0.076328
0.102226
0.076032
0.054720
-0.225623
-0.080108
-0.046495
-0.045807
-0.014444
0.150169
0.021240
-0.309834
-0.271034
-0.091879
0.090365
0.150948
-0.042786
0.078074
0.091442
-0.127897
-0.088520
0.164596
0.311565
-0.045832
-0.212768
0.073170
0.059608
-0.041487
0.194890
0.090137
-0.059268
-0.018175
-0.198524
-0.080358
0.003260
0.068818
0.059343
0.179301
-0.256965
0.097348
0.053083
-0.089745
-0.151895
0.034165
0.042084
0.226167
-0.049376
0.012631
-0.050935
-0.151054
0.104726
-0.154911
0.295873
0.148346
-0.061398
-0.151348
-0.227901
-0.090608
-0.182086
-0.112359
0.021034
-0.078502
-0.060087
-0.063157
-0.036016
0.027846
-0.033126
-0.046205
-0.217293
-0.059978
-0.095743
-0.256372
0.025357
0.040147
0.002366
0.086685
-0.024732
0.010724
-0.060262
0.174580
-0.216011
-0.040093
-0.003963
0.170023
-0.074052
0.038548
0.076974
0.373340
0.148860
-0.060031
-0.221938
0.133078
-0.064821
-0.158467
-0.290359
0.133765
-0.096710
-0.060081
0.159726
-0.114464
0.061698
-0.090737
-0.097406
-0.005287
-0.052092
0.054953
-0.092353
0.053275
-0.094453
-0.189172
-0.107804
-0.061017
0.182579
-0.243936
-0.139747
-0.008550
-0.080796
-0.115847
-0.179586
-0.004023
-0.079356
-0.497096
0.023012
0.359672
-0.107720
0.013666
0.023321
-0.084563
0.183287
0.168548
0.033908
-0.009006
0.246612
0.162544
-0.049381
-0.120457
0.125156
0.080080
0.095099
-0.134143
-0.083629
0.083389
0.062797
-0.061963
-0.022464
0.018052
0.007363
0.095540
-0.126019
0.071312
-0.075645
-0.033589
