-0.077446
0.065097
0.041400
-0.003499
0.030836
0.021614
-0.092921
0.016987
-0.081970
0.000390
-0.013228
-0.049810
0.010268
-0.037864
-0.041912
-0.013891
0.020431
-0.032329
-0.008839
0.017920
-0.018920
0.005667
0.044331
-0.015156
0.072773
-0.060828
-0.031470
0.100118
0.043131
-0.022625
0.076287
0.093336
0.049906
0.022762
0.100308
-0.123172
0.090537
-0.053066
-0.016268
-0.081748
-0.028432
0.070233
0.105230
0.035710
-0.035600
0.046304
0.023316
0.040766
-0.066080
-0.051728
0.036629
0.038278
0.010924
-0.018482
-0.083952
0.132576
0.018932
0.089106
-0.072084
-0.067807
0.056655
-0.002581
0.078036
0.067257
-0.007103
-0.108683
0.014280
0.042455
0.019358
0.038520
0.108255
0.066488
-0.000802
0.035609
-0.009422
-0.052086
0.057212
0.099174
-0.039443
-0.068683
-0.036883
0.091453
-0.102242
0.039702
0.076806
-0.097669
0.000013
0.000057
-0.069962
0.076172
0.072757
0.070853
0.036369
0.053509
0.066457
-0.023441
-0.057468
-0.068854
-0.015874
-0.052772
0.016007
0.051874
-0.013979
0.023045
0.086807
0.002901
0.005658
0.015961
-0.043418
0.021101
-0.122262
0.013112
0.007819
0.006714
-0.025314
-0.004775
-0.022125
-0.030673
-0.011510
-0.032580
0.036797
-0.033516
-0.028034
0.044775
0.019506
-0.006633
0.018157
-0.054463
0.038999
-0.069340
0.006522
0.049119
0.090720
0.055843
0.017010
-0.001836
-0.055896
-0.058043
0.056286
0.065882
0.101990
0.086296
0.013274
0.024662
-0.003989
-0.057440
-0.053049
-0.050766
-0.035076
0.040313
-0.020017
0.041708
-0.082499
-0.021000
0.055287
-0.106760
-0.083264
0.085614
-0.081715
-0.018144
-0.067006
-0.040743
-0.044709
-0.075858
-0.016208
-0.058911
0.039720
0.091643
0.002494
0.055483
-0.044240
0.089613
-0.011012
0.020422
-0.015854
0.049261
0.021991
0.064072
-0.030730
0.012744
0.034765
-0.016640
0.103544
-0.008839
-0.042701
0.032356
-0.007096
0.086543
-0.075530
0.076096
-0.093259
0.048827
0.095065
0.081218
-0.022968
0.062770
-0.056047
-0.011571
0.041564
0.062329
-0.020434
0.047541
0.117176
-0.018394
0.078518
-0.047888
-0.093468
-0.063031
-0.049428
0.022209
-0.074580
-0.017027
0.033111
-0.005337
0.081891
-0.070216
0.038243
0.071357
-0.002380
0.077227
-0.097393
-0.050022
0.066807
-0.015801
0.056496
0.035625
0.072831
0.066357
-0.035638
0.047009
-0.000026
0.055417
0.043047
0.052400
-0.056484
0.108937
-0.070295
-0.086247
0.041869
-0.015458
-0.052660
0.018928
0.025563
-0.011588
0.087911
0.054511
-0.007484
0.049351
0.062993
0.000640
0.049628
0.077078
-0.052105
-0.014337
-0.068804
-0.077415
0.025256
0.001666
-0.089181
0.042627
-0.037077
-0.013279
0.032146
-0.137200
0.007187
-0.046070
-0.064083
0.041146
0.078648
0.044349
-0.068347
-0.065044
0.069083
0.071185
0.008146
-0.023535
-0.004645
0.027773
-0.065609
-0.001980
0.049627
-0.108043
0.059714
-0.111784
0.046842
-0.016231
0.049897
-0.018865
-0.024795
0.073569
-0.071970
0.112848
0.001615
0.068400
0.008417
-0.087828
-0.068182
0.003620
-0.034115
-0.063658
0.032325
0.063584
-0.060307
-0.013226
-0.007439
-0.107794
0.006713
-0.056897
-0.022500
0.015284
0.081659
0.057088
0.067433
0.004323
0.049943
-0.040758
0.104244
0.037731
-0.063994
-0.073993
0.033347
0.001888
0.035438
-0.088094
0.088996
-0.051668
-0.031105
0.064703
-0.002784
-0.032365
-0.099990
-0.008543
-0.044180
0.078560
-0.065917
-0.081418
0.032958
-0.100900
-0.037901
0.046498
-0.073095
-0.066095
0.035167
-0.067605
-0.043359
0.105499
0.050213
0.062653
-0.010665
0.054398
0.016376
0.074574
-0.111780
-0.055282
0.012743
-0.061918
0.004360
-0.092629
0.000615
-0.045864
0.007729
0.009121
0.102347
0.042702
0.048016
0.032371
0.043810
-0.084505
0.133627
0.080158
-0.050195
0.029236
0.041146
-0.099138
0.062434
0.013258
0.018569
0.041312
-0.014990
-0.028152
-0.104153
-0.117762
0.033863
-0.099250
0.044401
-0.073340
0.022833
-0.063283
0.022022
0.142584
0.028155
-0.078268
0.026591
0.040738
-0.084987
0.045195
0.021279
-0.137237
0.041868
-0.056349
0.077694
-0.009741
0.100147
0.069314
0.085835
0.064292
-0.010105
0.068593
0.010633
-0.093700
-0.018610
-0.047944
-0.066509
-0.087541
0.062152
0.152168
0.001691
-0.003995
-0.069560
-0.021748
-0.080632
-0.119015
0.027195
-0.001086
-0.086296
0.107648
0.047451
0.064567
-0.030419
-0.116078
-0.085623
0.001132
-0.110409
-0.069755
-0.143812
-0.002220
-0.031810
0.031857
-0.060283
-0.003431
0.139028
0.106742
0.117116
0.075203
-0.044395
-0.011062
0.097565
-0.013874
-0.002158
-0.046106
0.056164
0.057778
-0.022277
0.129922
-0.102684
-0.061073
0.059831
-0.066801
0.153088
0.098680
-0.105071
0.028942
-0.047107
-0.001375
0.089607
-0.096789
-0.042575
0.049956
0.081272
-0.031944
-0.032040
0.109824
0.090714
-0.074927
-0.088115
0.056433
0.070320
0.031525
-0.120936
0.026766
-0.079718
0.032977
-0.056613
0.025012
0.128974
0.095414
-0.062319
-0.005423
-0.034283
-0.126753
0.027951
-0.103865
0.084679
-0.068680
-0.101300
-0.152948
0.016070
-0.112075
0.070102
0.107598
-0.094350
0.021542
-0.025427
-0.083783
0.054593
0.011402
-0.060498
0.092289
-0.033743
0.004743
-0.089078
-0.035534
-0.065238
0.010469
0.130080
0.053237
-0.007114
0.042834
-0.009422
0.006088
-0.060191
0.046455
-0.007254
0.071995
0.080763
-0.073701
-0.058546
-0.069720
-0.030750
-0.120185
0.073283
-0.015025
-0.001806
0.040354
0.027392
0.099436
0.106814
-0.104518
0.073050
0.014710
-0.072531
0.000721
0.102080
0.079479
-0.076877
-0.053097
0.008576
-0.118892
-0.049908
-0.052915
-0.093783
-0.181977
-0.141660
-0.020448
0.012612
0.002574
0.102398
0.031442
-0.081273
-0.088314
0.032409
-0.049986
0.026684
0.105202
-0.013303
0.073909
0.087412
-0.043601
-0.061458
-0.065376
0.050447
-0.108280
0.070607
0.065408
0.012187
-0.026427
0.054009
-0.030064
-0.049787
0.117218
0.027976
0.032755
0.014095
0.010303
-0.075874
0.002848
0.089800
0.004574
0.103359
-0.028410
0.003772
-0.082322
-0.146492
0.071789
0.070696
-0.011407
0.053105
-0.075112
0.046438
-0.022989
0.080604
0.018865
0.060144
0.172919
0.069317
0.099466
-0.132843
-0.024000
0.101393
-0.042937
0.013640
0.038994
0.044888
-0.137364
-0.062553
0.090945
0.041346
-0.028682
0.101628
0.065754
0.011063
-0.001415
-0.028509
-0.125410
0.035790
0.035166
0.011613
-0.077087
0.080816
-0.015057
-0.060202
0.064076
0.060420
-0.032803
0.097884
0.122804
0.062209
-0.067345
-0.057025
-0.041820
-0.030293
-0.037709
0.116421
-0.079216
-0.015251
0.013144
0.081908
-0.113321
-0.022592
-0.005834
-0.040504
-0.086088
0.079658
0.128196
0.047765
0.170463
-0.073743
-0.052238
0.064422
-0.064021
-0.071950
0.039625
0.041776
-0.087788
-0.042334
-0.075411
0.091983
0.092484
0.098752
-0.075337
0.030742
0.007746
-0.113490
-0.078277
0.025456
0.109536
0.065560
-0.078691
-0.053427
0.079429
-0.012488
0.137306
-0.074365
0.025623
0.000352
0.071304
0.109783
-0.006619
0.005237
-0.013561
0.022542
0.041632
0.007756
-0.029514
-0.002645
0.033933
0.163158
-0.028020
-0.042631
0.060770
0.075462
-0.020461
-0.106591
0.012244
0.096826
-0.072432
-0.035112
0.143483
-0.007808
-0.046669
0.116203
0.043739
-0.039831
-0.027703
-0.078184
-0.136874
-0.017605
-0.109051
0.025834
0.019161
0.078743
-0.117710
-0.066748
-0.056382
-0.020280
-0.057319
0.063395
0.017629
-0.053605
0.076340
-0.055839
0.084534
0.096737
0.027764
-0.023991
-0.039494
-0.050276
0.057510
0.020035
-0.047644
0.075226
0.068987
-0.071616
-0.036477
0.018431
0.089666
0.090629
-0.004661
0.042985
0.051674
0.012285
-0.079169
0.002239
0.035312
-0.036937
-0.046276
0.054853
0.051259
0.033415
-0.028396
-0.106353
0.080697
0.051249
-0.022573
0.051960
-0.068249
-0.084522
-0.053164
0.024989
0.000716
-0.043699
0.070281
0.063571
-0.083787
-0.005235
0.169436
0.129742
-0.032476
0.039061
0.001397
0.001646
0.047493
-0.106334
0.066177
-0.044122
-0.078919
0.100540
0.066031
0.114976
0.081804
0.074055
0.097965
-0.009793
0.015576
0.059362
0.056813
-0.074850
0.078081
0.024609
0.021650
0.075187
0.003376
0.055480
-0.008662
-0.024836
0.098309
0.016728
0.036034
-0.065806
0.023300
0.099890
-0.070016
0.054589
0.108999
-0.077659
-0.035362
0.006467
-0.096510
-0.057188
-0.074425
-0.016429
0.055172
-0.034580
-0.055866
-0.085071
0.038986
-0.009106
0.049987
-0.101405
-0.017942
-0.009771
0.004947
-0.071315
-0.025202
-0.058462
0.026627
0.063707
-0.132120
0.086728
0.025499
-0.016789
-0.009870
0.128667
-0.005126
0.025525
0.093348
0.063048
-0.086850
-0.035926
0.040834
-0.070052
-0.008284
-0.079001
-0.039554
0.043019
-0.039026
0.007692
0.043959
0.054994
-0.075672
0.065235
-0.101729
-0.055748
-0.002781
-0.006381
-0.050725
0.020971
-0.093714
-0.068826
-0.111660
-0.063662
0.085688
-0.050323
0.005911
0.048945
-0.033073
-0.032654
0.029996
-0.031647
-0.013431
-0.052154
0.065238
-0.091025
0.023485
0.013069
0.052662
0.015557
0.086719
-0.007482
0.007066
0.043535
0.048834
-0.051121
0.110188
-0.048141
-0.047670
0.105612
0.043113
0.014525
0.035069
0.040216
0.127179
0.024871
-0.010802
0.031780
0.073337
-0.046455
-0.053583
0.052040
0.067236
-0.130317
-0.101808
-0.014036
-0.047736
0.006334
-0.071254
-0.011693
-0.032120
0.051480
0.019760
-0.008379
0.066832
-0.048966
-0.049863
-0.005621
0.092331
-0.039500
-0.067929
-0.017403
-0.109034
0.092607
0.060728
-0.045923
-0.027484
0.046399
-0.026735
0.015161
-0.093086
0.056711
-0.064165
0.122345
0.090560
0.010115
-0.078130
-0.056301
-0.090701
0.116440
-0.018434
0.085615
0.064285
0.057190
0.049660
0.022941
-0.112283
-0.113173
-0.037941
0.020555
0.109735
-0.049450
-0.024115
-0.099589
-0.050659
0.089788
0.049462
0.077824
0.028731
-0.029294
0.001628
-0.049880
0.037864
0.005006
-0.093269
0.030295
-0.070813
-0.085622
-0.098437
-0.075460
0.016300
0.088509
0.055170
-0.021970
0.023750
-0.003905
0.029054
-0.000978
-0.012611
-0.088391
0.079946
-0.088325
-0.056172
-0.020483
0.017561
-0.092914
0.030166
-0.021572
-0.120484
0.053604
0.055921
0.038727
-0.098657
-0.067526
-0.033979
-0.003543
0.091540
-0.061652
0.009933
-0.045768
-0.106998
-0.046866
-0.040973
0.032476
0.079766
0.064251
-0.024428
-0.006217
0.086883
0.047192
0.085793
0.017763
0.073544
-0.033680
-0.020976
-0.119100
0.034923
-0.083428
-0.099382
-0.028920
-0.095110
0.060273
0.023540
0.064779
-0.042774
0.002744
0.041508
0.025812
-0.097185
-0.073745
-0.071481
-0.020839
0.067162
0.048002
-0.054982
0.048525
-0.035042
-0.026400
-0.076030
-0.032967
0.082304
-0.074832
0.068437
0.117338
-0.021019
-0.091653
-0.000138
0.053191
0.009731
-0.059652
-0.049248
-0.058164
0.026333
0.036148
0.041784
-0.010189
0.075435
0.032068
0.073992
0.012498
0.059258
-0.072428
0.062290
0.085039
0.019101
-0.050914
-0.118246
0.006210
0.014098
0.012547
0.042721
-0.016041
-0.088303
-0.040710
-0.114864
-0.062745
-0.055679
-0.008978
0.107686
-0.053038
-0.084678
0.085372
-0.040684
-0.079146
0.066798
0.043774
-0.013623
0.113751
-0.003131
0.053064
0.011711
-0.038358
-0.057875
0.034433
0.091408
0.046045
-0.017555
-0.079205
0.072026
-0.081078
0.099187
-0.013560
0.021827
0.059642
-0.061702
0.047659
0.064235
0.076175
0.075465
0.056516
-0.078000
0.073366
0.004805
0.067696
0.021760
0.045901
0.054069
-0.045279
-0.033781
-0.075602
0.109110
-0.032981
-0.095647
-0.015091
-0.046656
-0.007381
0.052389
-0.075560
0.034751
-0.013991
-0.033975
0.070146
0.077080
0.046282
-0.048843
-0.044581
-0.043194
0.005228
0.042971
0.059322
0.050274
0.103861
0.001622
0.098533
-0.097280
-0.042221
-0.000276
-0.029480
0.111328
-0.066074
-0.067281
0.081628
0.012865
0.011632
-0.035393
0.120514
0.019319
0.012492
0.073133
0.174239
0.082636
0.063159
-0.090367
-0.014116
-0.057058
0.055716
0.048061
-0.058063
-0.085658
0.117591
0.027540
0.083221
0.047738
-0.032509
-0.070447
-0.055835
-0.028412
-0.008042
-0.080168
-0.130855
0.007639
-0.053469
0.060909
-0.054241
0.098025
0.120452
-0.029289
-0.030897
0.070441
0.043811
-0.129377
0.002100
0.050471
0.052806
-0.087854
-0.090642
-0.081415
0.019921
0.076972
0.065084
-0.032838
-0.065683
0.028605
-0.037249
-0.041696
0.015871
0.077801
-0.046992
0.011834
0.041891
0.006155
-0.054403
0.050107
-0.074492
0.038549
-0.031912
0.066952
0.024746
-0.078596
0.028451
-0.044794
0.032017
0.059320
0.062975
-0.028597
-0.052449
-0.064768
-0.040199
-0.028977
0.005643
-0.019432
-0.017576
0.006001
-0.068892
-0.009227
-0.051642
0.047578
-0.066847
0.032548
-0.026614
-0.075308
-0.046252
0.052564
0.065662
0.075805
-0.037813
0.063289
-0.033098
0.062739
-0.068493
-0.060589
-0.078548
0.070090
-0.082102
-0.066412
-0.072114
0.012536
0.077892
0.090117
-0.065656
0.030774
0.011147
0.000208
0.007410
-0.072958
0.070223
-0.040824
-0.090161
0.013087
-0.054490
0.044769
0.075987
-0.052862
0.019570
0.012082
-0.084490
0.050946
-0.029285
-0.017829
-0.081361
-0.021480
0.075613
0.048824
-0.007091
-0.048110
-0.012486
-0.018813
0.031446
0.062292
0.082005
0.048061
-0.014625
-0.082296
0.009900
-0.029918
-0.052398
-0.080126
-0.061815
-0.020173
0.066389
-0.048498
-0.007834
0.029045
-0.089995
-0.052568
-0.012469
0.054717
-0.036709
-0.029907
-0.009174
-0.059698
-0.046961
-0.006516
-0.082354
-0.041300
-0.031101
-0.031036
-0.141413
0.072710
-0.018380
0.070350
0.043792
-0.057317
-0.128480
0.056581
-0.037683
-0.012808
-0.081962
0.106790
0.082329
-0.066275
-0.090125
0.079250
-0.022905
-0.033983
0.011705
0.102232
0.090721
-0.076332
-0.001630
-0.086875
0.049711
-0.072276
-0.086025
0.059483
-0.088415
-0.101181
0.027597
0.079784
0.062905
-0.061689
-0.033440
-0.103897
0.049116
0.032899
0.018205
-0.066554
0.076212
0.052319
0.042027
-0.007410
-0.045700
0.025005
0.009477
0.090163
-0.023279
0.030696
-0.046164
-0.083986
0.071010
-0.021455
-0.066843
-0.040727
-0.025240
-0.033963
-0.005963
-0.025688
0.049816
0.047808
0.054669
0.075147
0.071823
0.044067
0.049690
-0.018608
-0.003410
0.021590
0.083847
-0.028536
0.119237
0.099120
-0.083589
0.058083
-0.067700
-0.004660
-0.008874
-0.073150
0.022119
0.105654
-0.021189
0.054710
-0.012757
-0.006211
0.057289
0.069541
-0.124449
-0.045078
-0.045974
-0.116442
-0.124117
-0.002053
-0.072417
-0.014205
0.108108
0.040243
0.037747
-0.086888
0.117385
0.062514
0.076129
-0.167107
0.012087
-0.021645
0.087821
-0.134995
0.011975
-0.041302
-0.012101
-0.112752
-0.043915
-0.077345
-0.041100
-0.078150
-0.000644
0.016887
0.069769
-0.099615
0.109587
0.095701
0.092018
-0.079030
0.024141
0.080330
-0.071381
0.057547
-0.005242
-0.088518
-0.015155
0.009761
-0.013756
-0.045581
-0.077053
-0.013114
-0.087652
0.003386
0.113196
0.047965
-0.101282
0.025282
-0.016434
0.010965
-0.026803
0.058420
0.045582
0.030322
0.057800
-0.074278
-0.087532
-0.014079
-0.020657
0.128825
-0.012221
-0.074353
0.037225
0.036903
0.008452
0.126779
-0.019008
0.106113
0.078624
0.128975
0.055977
-0.052938
0.060237
-0.019544
-0.066031
0.028356
0.036693
-0.040408
0.054485
0.064161
-0.086272
0.060792
-0.072377
0.093265
-0.007622
0.035561
-0.097022
0.048211
0.005337
-0.000465
-0.081909
0.014106
-0.094189
-0.011360
0.010211
0.002324
-0.029670
-0.072778
-0.047326
-0.048292
0.068825
-0.072406
-0.025824
-0.060182
0.067367
-0.042141
0.024006
-0.128238
0.056045
0.087693
0.077896
-0.053212
0.138599
-0.083642
0.077241
0.085284
-0.034501
-0.023680
0.006056
0.051422
0.006978
0.131063
0.022693
0.017315
0.177803
0.009772
0.081392
-0.023426
0.123387
-0.083601
-0.047875
-0.077854
-0.087206
0.018347
0.054834
0.098913
0.119788
0.018178
-0.035656
0.062805
-0.002421
-0.103694
-0.030290
-0.004021
0.172465
0.150858
-0.042956
-0.003862
-0.043557
-0.039453
-0.091857
0.004144
-0.101831
0.002743
-0.014907
0.000508
-0.000475
0.096793
-0.010337
0.014425
-0.022087
0.048204
0.049320
0.075795
-0.065161
-0.012240
-0.087666
0.037368
-0.017541
0.022011
0.034260
0.082673
0.068139
0.019779
-0.111805
0.089320
-0.047704
0.000687
-0.004582
-0.102882
-0.119899
-0.030838
-0.016002
0.000585
0.074039
0.034278
-0.087501
-0.001419
0.067431
-0.007548
-0.043161
-0.098881
0.020681
0.134563
0.075571
-0.033466
-0.036896
0.108754
0.058194
0.055390
-0.053834
0.087523
0.011258
0.078135
0.018453
0.051734
0.089321
-0.110128
0.074603
0.118252
0.091310
0.093376
-0.039835
0.058146
0.074842
0.046138
0.009584
-0.073223
0.101490
-0.047292
0.045284
0.013888
-0.005320
-0.011699
-0.097748
0.026914
0.119344
0.003520
0.017023
0.026258
0.071508
0.003532
0.099628
-0.104051
0.015106
-0.049477
-0.056590
-0.043015
0.057254
-0.031748
0.064991
-0.155295
-0.030686
0.006911
-0.102426
0.024673
0.149033
-0.013541
0.080128
-0.023137
0.027559
0.104211
0.005321
0.013294
0.000562
-0.076936
0.005845
-0.045062
0.066622
-0.064460
-0.042414
0.103391
0.020358
-0.047319
-0.099904
-0.084042
0.034778
0.041133
0.047385
-0.013171
-0.109118
-0.101912
0.126525
0.000702
-0.011156
-0.009194
-0.050903
-0.018878
0.037851
0.102510
-0.058979
0.046319
0.098562
0.113827
0.019025
0.089196
0.033168
0.016195
0.018306
-0.068668
0.050989
0.003160
0.051406
-0.046471
0.001109
0.085271
0.125662
-0.038726
-0.044157
0.016784
0.121670
0.008728
-0.011602
-0.048061
-0.031306
0.007426
0.018495
-0.012497
0.025372
-0.059182
0.077735
-0.016033
-0.032170
0.064022
0.068307
-0.101868
-0.009690
0.068142
0.013965
0.055259
0.000040
-0.075663
-0.031120
-0.018353
0.089910
0.088238
-0.061506
0.036461
0.066172
0.089271
-0.092701
0.055011
-0.045499
0.054713
0.067325
-0.044852
0.057461
-0.057577
-0.006110
-0.008080
-0.057023
0.060687
0.063249
0.064395
0.067320
-0.066615
-0.002755
-0.087300
-0.046422
-0.080410
0.004128
0.112083
0.055781
0.004562
-0.004529
-0.026135
0.084230
-0.072190
0.014705
-0.063909
-0.063926
0.126581
-0.052117
-0.024095
-0.042821
0.009683
-0.074719
-0.001497
-0.041775
0.025093
-0.081316
-0.082060
-0.055014
0.049751
0.107015
-0.040076
-0.036163
0.069505
-0.076690
-0.053870
0.096014
-0.052017
0.119911
-0.045547
-0.004971
-0.043838
0.029690
-0.012938
0.068220
0.077507
-0.042349
0.076252
-0.088285
0.027850
0.049423
-0.005932
-0.028635
-0.012335
0.080032
0.027378
-0.064915
-0.085611
-0.036184
0.056402
0.028298
0.005304
0.057341
-0.057518
-0.082377
-0.095169
0.020179
0.000553
-0.053759
-0.031458
0.063813
-0.035801
0.113342
0.082029
-0.010826
-0.122904
-0.057334
-0.045183
0.051695
0.065650
-0.102110
-0.035592
-0.051436
-0.124436
-0.048607
0.026040
0.053294
0.064547
0.080230
-0.020651
0.067521
-0.045628
-0.055366
0.033024
0.113405
-0.093979
-0.036326
-0.084209
-0.007422
0.029270
0.051621
-0.020600
-0.007930
0.120671
-0.154387
0.065426
-0.021724
-0.035400
0.126923
-0.016578
0.005883
0.006756
-0.113728
-0.008482
0.008679
-0.048492
-0.059442
-0.023820
-0.107557
0.004925
0.027886
0.082760
0.016409
-0.079491
0.141656
0.005605
-0.012545
0.055483
0.039305
-0.100126
0.107379
0.001295
-0.038590
0.072094
-0.013263
-0.018023
0.038977
0.043248
0.016277
-0.081432
0.018307
0.036131
0.012958
-0.027716
-0.116013
0.099228
0.014315
-0.011605
0.018471
0.063073
-0.062386
0.131454
-0.000303
0.101494
-0.011353
0.025490
0.131024
0.027767
-0.069133
0.056844
0.084109
-0.044869
-0.082343
0.066393
-0.072426
0.087713
-0.061085
-0.004239
0.050668
-0.029060
-0.053588
-0.047868
0.020885
0.094501
-0.026826
0.014499
-0.070910
0.038547
0.089046
-0.005062
-0.006756
-0.005300
-0.028103
-0.037525
-0.058524
-0.014016
-0.019108
0.045507
0.053543
-0.037883
0.087185
0.076900
0.010794
-0.039642
-0.077424
-0.071143
-0.017889
0.061780
-0.015182
-0.048945
0.008318
-0.074343
0.041786
0.043186
-0.011028
0.046280
0.046531
-0.004992
0.030844
-0.052607
0.067627
-0.097113
-0.060808
0.028364
0.000884
-0.060366
-0.054411
0.091243
-0.015625
0.007595
-0.074244
-0.008385
0.060870
-0.040679
0.072628
0.007992
0.076470
-0.069322
-0.025998
0.081425
-0.021213
-0.090613
0.080919
0.008518
-0.049306
-0.050748
-0.022155
-0.016604
-0.073499
-0.023760
-0.042502
-0.028549
-0.075443
0.053797
-0.088559
-0.062394
-0.029811
-0.023605
-0.051525
0.013098
0.086384
-0.025928
-0.057221
-0.009301
-0.010605
-0.091012
0.042124
-0.063461
-0.027962
0.079530
-0.071819
0.065244
0.077457
0.056141
-0.033405
-0.074982
-0.049606
-0.022676
0.033002
-0.032655
-0.013847
0.091008
-0.027525
-0.037135
0.029920
0.080975
-0.054138
0.069966
-0.079742
-0.063330
0.003842
-0.035295
-0.070544
-0.049241
-0.011869
0.085362
-0.026007
-0.035286
0.054303
0.088495
0.041223
0.000929
-0.080425
0.012893
-0.096038
0.044285
0.034372
-0.071630
-0.040515
-0.058124
-0.018979
0.058667
-0.051437
-0.031047
-0.031942
0.036786
0.014786
-0.093556
0.047989
-0.078737
-0.092045
-0.048803
0.037814
-0.078700
-0.066774
0.044369
0.022988
-0.055513
-0.089030
0.065242
-0.081483
-0.010006
0.016017
-0.051249
0.050357
-0.083297
-0.057833
-0.010104
-0.037160
-0.018881
0.059649
-0.080080
-0.051304
-0.004984
-0.016545
0.054699
-0.063516
0.078418
-0.077252
0.029682
-0.033006
-0.043427
-0.049557
0.047242
-0.104210
0.076335
-0.022397
0.065194
-0.072338
-0.029938
-0.033550
0.075572
-0.025472
0.006304
0.033081
-0.024506
0.047480
0.048156
0.090489
-0.002328
-0.047560
-0.051440
-0.066880
0.067828
0.001164
0.053141
0.041725
0.044434
-0.047284
0.026536
-0.057502
0.017471
0.084232
0.067564
0.053387
0.014974
0.028498
0.072400
-0.057515
-0.042814
0.064048
-0.033777
0.017532
0.038135
-0.062095
0.041212
-0.013220
0.085280
0.016687
-0.042158
-0.068546
-0.038530
0.007187
0.050012
-0.084245
0.099214
-0.010026
-0.019672
0.064811
-0.023620
-0.034045
0.058541
0.083764
-0.049497
0.022401
0.047690
-0.035008
-0.114205
0.034272
0.015589
0.091876
0.006148
0.099506
0.043696
-0.039104
-0.037712
-0.063532
-0.106708
0.092048
-0.056002
0.064407
-0.040660
-0.096455
-0.089383
0.083399
0.113217
0.106722
-0.061104
-0.027980
0.005281
-0.011797
0.031247
0.053053
0.053482
-0.002509
-0.026939
0.041298
-0.059439
0.056838
0.079427
-0.113618
-0.024830
-0.023917
-0.048056
0.051268
-0.045883
-0.047304
-0.089589
-0.032810
-0.101613
-0.002250
0.086339
0.069957
-0.090569
-0.079223
-0.124882
0.064580
0.041522
-0.103630
0.060216
0.152086
0.011654
-0.027486
0.070136
-0.010832
-0.016666
-0.022952
-0.139853
0.077922
0.001292
-0.101635
-0.003287
-0.046413
-0.016605
-0.110579
0.061711
-0.026435
-0.031823
0.072780
0.092132
0.006179
-0.114149
-0.023032
0.001102
0.057487
-0.061773
0.080242
-0.058371
-0.081509
0.043866
0.113638
0.056603
-0.064326
0.073864
-0.018603
0.002659
-0.083320
0.042679
0.050374
-0.002336
-0.075527
-0.071159
0.024944
-0.015539
-0.024738
0.050955
-0.050980
-0.009010
-0.063828
0.071494
0.021982
-0.059777
0.093089
0.046981
0.012064
0.040974
0.015092
0.040640
0.069942
0.048882
-0.041374
0.079288
-0.139776
0.022448
0.050911
-0.040072
0.122649
-0.078464
-0.140619
-0.014457
0.063806
-0.059049
-0.049028
-0.022457
-0.003067
-0.062422
-0.066232
-0.067895
0.130254
-0.033671
-0.024675
0.073972
0.000309
0.017290
0.082555
-0.012316
0.075480
0.003391
-0.102408
0.073519
0.031439
-0.037222
0.137958
0.005088
0.067017
0.058561
-0.017482
-0.009424
0.009866
0.099205
-0.069526
-0.002544
-0.019501
-0.049287
0.055581
0.063043
0.047053
-0.059187
0.061176
0.006967
0.070978
0.080524
0.055588
-0.036769
0.153612
-0.029726
0.047888
0.052874
0.014017
-0.047734
-0.000454
0.013851
-0.086435
0.091859
0.013994
-0.045938
0.050836
0.018635
0.065559
-0.037503
0.031569
0.019281
0.071891
0.116583
0.067662
0.064118
0.084452
0.075674
-0.026214
0.030976
0.071713
0.098236
-0.090034
0.117272
-0.089511
0.077659
-0.018783
-0.077768
-0.043938
-0.083299
-0.031914
-0.116747
-0.057848
0.017294
0.013700
0.035809
-0.101300
-0.098107
0.162268
0.038449
0.085694
-0.011651
-0.006281
-0.088876
0.081313
-0.034024
0.000923
0.061921
0.065902
-0.090266
-0.046416
-0.002394
-0.004819
-0.055919
0.037629
0.009540
0.106804
0.014831
0.075922
-0.081460
-0.030740
-0.074187
-0.150842
-0.095327
0.084009
0.091223
0.098017
0.129875
-0.039319
0.036903
-0.095104
-0.034440
0.070692
0.018295
0.061038
0.062377
-0.085370
0.045556
-0.012430
-0.013307
0.015711
-0.039311
-0.057578
-0.004186
-0.056002
-0.117979
-0.002141
0.069737
0.063613
-0.030885
-0.029175
0.050923
-0.069998
0.076984
0.052641
0.072505
-0.105282
-0.077166
0.078990
-0.025613
-0.053766
-0.139381
-0.032947
0.062968
0.010159
-0.010118
-0.038863
-0.046130
0.089668
0.150398
-0.061169
0.086213
0.034436
-0.165716
0.009388
0.087406
0.055039
0.025434
0.084243
0.114396
0.079202
0.052666
0.048247
0.055596
0.121557
0.033398
0.047046
0.033547
-0.053601
-0.009314
-0.078798
0.065071
-0.033950
0.059071
-0.027584
0.025533
0.039916
0.027512
-0.071326
0.038646
-0.023582
0.018068
0.016048
0.078193
0.091215
0.094251
-0.048081
0.057716
-0.170962
-0.000169
0.042523
-0.124360
0.062235
0.114235
-0.033226
0.080374
-0.067211
-0.023110
0.024173
0.061265
0.021358
-0.044622
0.046028
0.068617
-0.010725
0.090793
0.100129
-0.036505
0.129116
0.034981
-0.069919
-0.085257
-0.023772
0.143830
0.071922
-0.042620
0.066920
0.011366
0.017193
0.070693
-0.041890
0.018624
0.030438
-0.093987
-0.016975
-0.048389
-0.030268
-0.029174
-0.057342
0.021938
0.012861
-0.078837
-0.081978
0.088459
0.061108
0.011824
0.022109
-0.086422
-0.058801
-0.078011
-0.073313
-0.033185
0.047443
0.066908
-0.078831
-0.028918
-0.032489
0.059732
0.010279
-0.039833
-0.024467
-0.036220
0.049344
-0.078500
0.023607
-0.075482
-0.091889
-0.076884
0.042099
0.096116
0.077958
0.047949
-0.042862
-0.041983
-0.000737
-0.069692
0.044134
0.026133
0.068984
0.043707
-0.040573
0.077207
0.088171
0.077230
0.063394
-0.058353
0.077268
-0.017956
-0.031579
0.039753
-0.029366
0.071516
-0.078322
-0.040032
-0.021209
-0.090119
0.082637
0.024419
-0.070297
0.003333
0.025258
0.081487
0.023090
-0.061793
0.058725
-0.018833
-0.086367
0.027944
0.025560
-0.011964
-0.109424
-0.071293
-0.034808
0.062289
0.100528
-0.069457
0.000594
0.036779
0.067621
-0.100348
0.023907
0.024962
0.016439
-0.015202
0.108727
0.024255
0.079059
-0.029700
0.055525
-0.009193
0.009369
0.038831
0.014995
-0.002283
-0.010103
-0.070621
0.054837
-0.048217
0.022163
0.020320
0.064260
0.031537
0.010303
0.065829
-0.052003
0.014067
0.020929
0.073128
0.087061
0.018134
-0.114827
0.077872
0.015961
-0.010376
0.143631
-0.052964
-0.010306
0.024086
-0.043356
-0.004224
-0.067617
-0.010470
0.021729
0.047267
0.042781
0.052536
0.070403
-0.063961
-0.035026
-0.062120
0.033031
-0.120525
-0.101376
0.006367
-0.031570
0.026854
-0.060359
0.046341
-0.028527
0.039727
0.114366
0.002218
-0.100560
0.006831
-0.006673
0.044200
0.029155
-0.002281
0.051088
-0.038837
0.112976
0.144623
-0.052014
0.037785
0.061395
0.088077
0.000285
-0.011221
0.041527
-0.061585
-0.086251
-0.013263
0.072694
-0.065140
-0.097855
-0.153693
0.053967
0.051558
-0.011881
0.055437
0.101864
-0.040582
0.034892
0.093433
0.014697
0.021298
0.025033
-0.105335
0.012240
0.023232
-0.094613
-0.072502
0.043863
-0.006995
0.043902
0.007296
0.030057
0.028964
0.118845
0.047458
0.033571
0.048462
-0.057086
-0.054006
0.045964
-0.044580
0.058995
0.024732
-0.052942
0.011122
0.071814
0.039076
-0.003117
0.044307
-0.012741
-0.067222
-0.044863
0.061319
-0.048973
-0.015458
-0.067673
-0.079606
-0.164984
-0.131507
0.006264
0.094250
0.034024
0.053758
-0.036945
0.022329
0.116062
0.019057
0.120893
0.146506
-0.021725
-0.015248
-0.054202
-0.071637
0.001497
-0.071918
0.003164
-0.064443
-0.114431
-0.071005
-0.008942
-0.049309
0.023403
-0.058821
0.123206
0.082771
0.009598
0.045146
0.012612
-0.024847
0.091573
-0.023772
0.020391
-0.018262
0.051258
0.133584
0.089332
0.061945
0.012240
-0.080279
0.090782
0.024563
0.070146
-0.006093
0.099836
0.086599
0.011706
-0.042523
0.003152
0.054531
-0.040133
0.043739
0.045349
-0.047387
-0.068560
0.033055
-0.037419
-0.010418
0.069036
-0.022463
-0.079427
0.071552
0.070824
-0.102325
0.011058
0.035868
-0.000879
-0.052082
-0.010715
0.068143
-0.033138
0.024015
-0.019260
-0.047148
0.082334
0.046436
-0.042332
0.028237
0.040767
-0.057958
0.123727
-0.027183
-0.003894
0.036557
0.038821
0.003104
-0.016010
-0.022276
0.016888
0.010298
0.107629
-0.030594
0.110759
0.065802
-0.100102
-0.026880
-0.024199
0.109857
0.043231
-0.009725
0.057462
-0.021351
0.021359
0.070345
0.006034
0.067865
-0.123593
-0.055443
0.023997
0.065509
-0.073506
0.053989
-0.096204
-0.061754
0.023698
0.042112
-0.032774
0.028636
-0.086955
-0.156973
0.090382
-0.019981
0.024766
-0.000670
-0.014896
-0.139583
-0.060878
0.030790
0.036984
-0.082118
0.049057
-0.112146
0.067567
0.031906
0.039111
-0.033431
0.026989
0.018664
0.037023
0.042396
0.005313
-0.041093
0.014970
0.104701
-0.004958
-0.022519
0.098798
-0.072581
-0.038798
-0.003392
0.017392
-0.020638
0.029775
-0.058204
-0.030709
0.086102
0.004923
-0.046638
0.027926
0.022724
-0.060179
0.014537
0.082679
-0.079722
-0.009587
0.055154
-0.022761
0.056096
-0.009758
-0.116026
0.054168
-0.057011
-0.049125
0.058154
-0.063283
0.004351
0.108293
-0.109766
0.007510
-0.066328
0.001600
-0.054258
0.036923
0.013422
-0.039521
-0.031446
0.064827
0.019998
0.049758
0.001218
0.018567
-0.014570
0.058722
0.085698
-0.035487
-0.079570
-0.110265
0.059592
-0.040739
-0.038101
0.117894
0.049790
-0.005161
-0.076063
0.119932
0.009097
-0.081987
-0.008561
-0.018115
0.011472
0.100369
0.110415
-0.080891
0.021746
-0.015904
-0.015368
-0.051762
0.058145
-0.052969
0.029759
-0.060107
0.065444
-0.089273
-0.079310
0.010259
-0.018376
0.036695
-0.053463
0.004217
-0.015769
0.091392
-0.076101
0.047349
0.000828
-0.041580
-0.076201
-0.059966
0.072109
0.060913
-0.002615
-0.008743
-0.053350
-0.036728
0.009289
-0.078866
0.037497
0.040859
-0.022871
-0.058795
-0.028317
0.016954
0.001390
0.050527
-0.103543
0.016327
0.038623
-0.065816
0.141009
0.118262
-0.064198
-0.076326
-0.021460
-0.008382
-0.125141
0.017332
-0.058214
-0.149116
-0.040849
-0.017383
-0.021978
-0.004217
0.086833
0.038689
0.025407
-0.015667
-0.017185
0.039156
0.062127
0.066705
-0.019372
-0.001211
0.080252
-0.125598
-0.078220
0.120347
0.028388
-0.086909
-0.089887
-0.094597
0.169767
-0.028491
0.012669
-0.022775
0.044369
0.055304
0.053049
-0.024823
0.075828
0.085598
-0.008543
-0.033988
-0.045994
-0.085282
-0.044875
-0.031494
0.056688
-0.072829
-0.081970
0.021610
0.079973
0.071131
-0.134743
-0.066723
-0.026930
0.082062
-0.023420
0.075821
-0.083944
0.108491
-0.072005
-0.048663
0.087775
0.017043
0.053348
-0.012594
0.005105
-0.051433
0.003826
0.085210
0.032165
0.114565
0.057425
0.022654
-0.076579
-0.015373
0.053265
0.024124
0.109901
0.114496
0.009145
0.018938
-0.062022
0.078948
0.056037
-0.099345
-0.047030
0.009521
0.005991
-0.090020
-0.054855
0.064922
-0.025087
0.065716
-0.065960
-0.080202
0.031883
-0.072866
0.008655
0.078324
0.054506
-0.049735
-0.150002
0.095701
-0.001640
0.049606
-0.073369
0.036951
0.043555
0.105672
-0.035415
0.043736
0.012035
0.056459
-0.004507
-0.089350
-0.087964
-0.026370
-0.131937
0.080667
-0.081816
0.093278
0.072591
-0.008247
-0.093123
0.072039
-0.023800
0.008803
0.079681
-0.095651
0.041773
0.025513
0.095373
-0.011730
0.010072
0.034737
0.002919
0.101923
-0.082257
-0.014426
-0.036112
-0.015256
0.020768
-0.023461
0.053892
-0.102689
-0.003713
-0.007904
-0.068526
0.049217
0.013136
-0.064712
0.032970
0.011589
0.016005
-0.028425
-0.001555
0.007881
0.128182
-0.026877
0.047836
0.010653
-0.078038
-0.067818
0.077336
0.036436
-0.032330
0.032028
-0.043643
0.083565
0.131199
0.115805
0.048663
-0.063404
-0.039434
0.124597
-0.116805
0.048778
0.088099
0.091943
0.090724
0.034597
-0.065308
-0.079076
0.048028
0.084023
-0.007319
-0.007088
0.056371
-0.006237
0.024105
-0.050552
-0.057119
-0.019161
0.068562
0.155324
-0.023459
-0.052468
-0.038466
-0.028133
0.003570
-0.116891
0.074294
-0.023057
-0.014642
0.046317
-0.042824
-0.034812
0.051255
-0.007073
0.014190
-0.034148
0.067814
0.015598
0.138165
0.013678
0.063131
0.033477
0.104534
-0.047125
-0.020723
0.013112
0.015651
-0.083205
0.055767
-0.040962
0.045930
-0.049600
-0.049633
0.045169
-0.041847
-0.037176
-0.029589
0.002388
0.059234
-0.002454
-0.048722
0.109528
0.007400
-0.087233
0.105542
0.086165
-0.037188
0.112068
-0.024225
-0.041549
-0.086437
-0.055073
0.046604
0.111031
-0.053320
-0.043448
0.058933
0.058228
0.057261
-0.082818
-0.094593
-0.042133
0.028057
0.001608
-0.033789
-0.086927
0.074088
-0.030397
0.063713
-0.033074
-0.081293
0.121304
0.066307
-0.050467
0.094282
0.022272
-0.121326
-0.026859
0.082402
0.035154
-0.044412
-0.061090
-0.070916
0.033929
-0.112840
0.078845
0.049236
0.019413
-0.089742
-0.016740
0.014334
-0.079235
0.097101
0.086637
0.016564
-0.082612
-0.139765
0.080864
-0.020662
-0.101170
0.052937
0.134789
-0.027619
0.072184
-0.033672
0.067798
-0.064175
-0.004593
-0.005813
-0.024754
-0.091707
-0.030299
0.076860
-0.008387
-0.000208
-0.053404
0.036517
-0.030893
0.061519
-0.058383
0.058946
0.013091
0.080279
-0.007139
0.087363
0.103433
-0.056614
-0.057065
-0.089242
0.092710
-0.032148
0.001297
0.083784
-0.036810
0.121619
-0.068524
-0.067857
-0.064968
-0.027112
0.161957
-0.026947
0.103614
-0.003591
-0.041494
0.061228
-0.026461
-0.020445
-0.068377
-0.008709
0.021671
0.024758
-0.054808
-0.013773
0.033892
-0.020639
0.013107
-0.017353
-0.086171
0.023566
-0.030806
0.026400
0.077511
-0.008491
0.038352
-0.031359
-0.097208
-0.025369
-0.013355
-0.138349
0.010830
-0.093973
0.130744
0.062666
0.065900
0.020516
-0.033134
0.049739
0.125921
-0.053540
-0.028232
0.111543
-0.074535
-0.179142
0.003787
-0.036553
0.092963
0.104341
0.121054
-0.038916
0.052953
-0.024723
-0.019576
0.000502
0.130223
0.005682
0.055883
-0.080754
-0.050113
0.057619
-0.041737
0.014779
-0.003251
-0.089210
0.054269
0.070196
0.051442
-0.048594
-0.092698
-0.029719
0.076717
0.061192
-0.007997
-0.024898
0.009484
0.157051
-0.135832
-0.066888
-0.032446
-0.089495
-0.061986
0.041024
0.067403
0.012999
-0.015826
0.039357
0.041778
0.025757
0.053014
0.090326
-0.002760
0.032211
-0.066982
-0.056007
-0.009924
0.052732
0.108405
0.107416
-0.032688
0.041404
0.037680
0.080184
0.032039
-0.010619
0.087103
-0.008027
0.129555
-0.007443
-0.084715
0.000458
-0.096008
0.070558
0.036081
-0.007148
-0.073033
-0.047015
0.056374
-0.105621
-0.053267
0.123707
0.069610
0.047988
-0.084576
-0.029152
-0.009273
0.043063
0.047569
0.032152
-0.008760
0.029687
0.035102
-0.005009
-0.068988
0.053688
0.054526
-0.109315
0.063840
-0.053595
0.053815
-0.052436
-0.039345
0.061289
0.004627
0.025934
-0.045491
0.056229
-0.018339
-0.022653
-0.043785
0.082113
0.092832
0.040252
0.095447
0.007277
-0.043437
-0.024958
-0.061468
-0.024023
-0.044030
0.033382
-0.103711
-0.058126
0.028566
-0.026576
0.085238
-0.008383
-0.089845
-0.025076
0.007363
0.038904
0.027072
-0.016944
0.120142
0.020552
0.037439
0.066900
0.007908
-0.079529
-0.069315
-0.039572
0.059405
-0.063468
-0.077787
0.069155
0.017764
-0.104298
0.066023
0.056730
0.020353
-0.032641
-0.007932
-0.126356
-0.035635
0.006055
0.027941
0.067516
0.016330
-0.061578
0.075005
0.011221
0.030218
-0.089281
0.050699
-0.030323
-0.061233
0.103778
0.056794
0.048616
0.008774
0.042575
0.079629
0.064181
0.063388
0.035688
0.009485
-0.081227
-0.042277
0.057123
0.068849
0.047174
0.097582
-0.000364
-0.042340
-0.029368
0.053708
-0.029520
0.021581
0.020789
0.029892
-0.076339
-0.102722
0.010236
-0.065254
0.018107
0.070801
-0.012257
-0.024547
-0.098268
0.107838
0.028724
-0.005662
0.001375
0.047964
-0.073518
-0.066378
-0.005729
-0.042492
0.000997
0.066008
0.036644
0.007665
0.056734
-0.004738
0.053556
0.039289
0.113294
-0.118089
0.010571
-0.087634
0.048063
0.013520
0.010956
0.065153
0.015534
-0.002109
-0.049754
-0.047262
0.007258
-0.046712
-0.051776
0.093327
-0.006779
0.079440
-0.081860
-0.072162
0.064415
-0.019119
-0.055695
-0.086352
-0.030659
-0.087008
-0.018885
0.002955
-0.001313
-0.054323
-0.080418
-0.047960
-0.093430
0.021729
-0.052979
-0.005056
0.009395
0.042757
0.067908
0.107887
-0.036554
-0.001849
-0.046434
0.046161
0.060875
-0.038498
0.115745
-0.031716
0.010498
-0.034423
-0.153489
-0.073091
0.051830
-0.068759
-0.071991
-0.013146
-0.103523
0.072627
0.008599
-0.041059
-0.042740
-0.016964
-0.096087
0.016489
-0.046346
-0.044670
-0.101139
0.011622
0.072463
-0.135751
0.088135
-0.112544
0.022087
-0.017197
-0.110251
0.057702
-0.057629
-0.108770
-0.033422
-0.106389
-0.012556
0.007333
0.047466
0.031884
0.071108
0.002948
0.058927
0.022394
-0.056368
-0.035377
-0.045026
0.143083
-0.077587
0.081398
-0.126191
0.049802
-0.014406
0.114590
0.002066
-0.076622
0.070758
0.087131
-0.101680
-0.032061
-0.048281
0.025895
0.058791
-0.126443
-0.075740
0.048765
-0.075277
-0.078314
0.030463
-0.082804
-0.077706
0.045397
0.057719
0.015643
-0.043715
0.066012
0.009590
0.048180
0.055904
0.027635
0.029879
-0.017900
0.018713
0.055337
0.117202
-0.078560
0.056048
0.001275
-0.072820
-0.128265
-0.054328
-0.098138
0.098210
-0.092391
-0.123882
-0.129841
0.017810
0.006234
0.098416
0.084076
-0.067999
0.079778
0.021057
0.010405
-0.001125
-0.088293
0.088749
-0.093741
-0.043260
-0.081682
0.047118
0.076022
0.026059
-0.099315
-0.100040
-0.067210
0.094801
-0.009605
0.024115
0.005576
-0.082210
0.083074
0.017435
0.000126
0.094972
-0.025702
0.031484
-0.023049
0.072222
-0.022740
0.011293
-0.003744
-0.001588
-0.060859
0.015230
-0.007107
0.177995
0.047702
-0.038986
-0.079437
0.086899
0.005254
0.053452
-0.046994
-0.036912
0.016865
-0.076188
-0.016564
-0.023596
-0.080100
0.076825
-0.098695
0.071469
-0.008667
-0.048361
-0.069243
-0.138262
-0.067797
0.016300
-0.010589
-0.038840
0.028160
0.085502
0.014616
0.099602
0.043697
0.079674
0.058910
-0.071918
0.088692
-0.091123
0.100969
-0.027855
-0.069789
-0.102261
-0.038481
0.025079
0.090088
0.038733
0.046407
0.030678
-0.040448
0.019685
0.046666
-0.032817
0.109211
-0.019921
0.141277
-0.041094
0.113029
-0.002450
-0.078893
0.016466
0.054852
0.033381
0.051774
-0.056536
-0.002234
0.001531
0.051127
-0.089041
-0.035682
0.082209
0.010705
0.005607
0.046083
-0.006550
-0.082777
0.032122
-0.073291
0.064661
-0.074000
-0.012574
-0.092995
-0.068813
0.010863
-0.072768
0.043981
0.039550
-0.063028
0.011950
0.067720
0.089459
0.096856
-0.154149
0.067092
-0.043750
0.022764
0.088137
-0.017015
-0.005349
-0.051942
-0.072386
-0.091381
-0.041865
-0.012672
-0.107351
-0.006399
-0.117572
-0.025822
0.064414
-0.098055
-0.065267
0.054560
-0.051377
0.088364
-0.003482
0.096567
0.030478
0.060056
0.030375
-0.070805
0.099648
0.089163
0.070558
0.081944
-0.001602
-0.130984
-0.015308
0.037636
0.059792
-0.019466
0.085616
0.037099
0.012754
-0.054239
0.043839
-0.069734
0.091835
0.007198
-0.014394
-0.045651
-0.045739
0.041165
0.065854
-0.058288
0.036377
0.079539
0.065438
-0.058444
-0.001555
-0.012372
0.053333
-0.017468
0.011961
0.051785
-0.074903
-0.020886
-0.041516
0.055502
0.061509
-0.134370
-0.117918
-0.003225
-0.050049
-0.004224
-0.010123
-0.106656
-0.043356
0.022323
0.059247
0.038452
-0.088681
-0.035126
-0.057221
0.093641
-0.056785
0.007693
-0.051295
-0.040953
-0.004175
0.051146
-0.028297
-0.053281
-0.085598
0.000223
0.041646
0.055222
-0.002341
0.034272
0.044943
-0.092038
0.030555
0.012832
-0.036051
-0.072261
0.045889
0.056026
-0.015777
0.038436
-0.081232
0.065585
0.024857
0.002893
-0.022205
0.045592
0.078756
-0.016352
-0.062652
0.072567
0.067945
0.004174
-0.041628
0.000514
0.049123
0.075976
0.013232
0.066735
-0.014417
-0.069542
-0.045580
0.007409
-0.065232
-0.068768
0.010711
0.061535
0.030596
-0.032612
-0.080214
-0.125804
0.081785
0.000241
-0.025328
0.008450
0.024244
0.022198
0.023995
0.014032
0.006356
-0.059765
-0.042133
0.048400
0.023648
-0.034161
-0.086880
0.049110
-0.134108
-0.081581
0.062060
0.059728
-0.006475
-0.053182
-0.003565
0.001127
0.076856
0.048226
-0.039524
0.020726
-0.026058
0.083261
0.081780
0.063162
-0.065549
-0.051478
-0.023789
0.083097
-0.047295
-0.036166
0.051617
-0.002703
-0.015780
-0.023050
-0.044426
0.024155
-0.044386
-0.035865
-0.044006
0.044664
-0.060099
-0.021022
0.062732
-0.010767
-0.076945
-0.047094
0.022020
0.049229
0.033062
-0.085483
-0.007490
0.015711
-0.101411
-0.084443
-0.047420
0.040789
-0.024148
0.066638
0.002905
-0.066458
-0.014804
-0.032357
-0.049311
-0.087682
-0.034294
-0.065490
-0.052029
0.014445
-0.048734
0.086300
0.014572
0.085196
0.069321
-0.021235
0.083187
0.090230
-0.048078
0.046306
0.000404
-0.064654
-0.031080
-0.051744
0.055936
0.078382
0.095298
0.140742
0.042358
0.010196
0.083915
-0.078680
-0.052320
-0.068046
0.047506
-0.003409
0.005602
-0.014068
-0.150552
-0.017059
-0.077400
-0.047885
0.079497
0.093716
0.060937
-0.037806
-0.044967
-0.033539
-0.063134
0.117022
-0.144168
-0.096743
0.097663
0.039759
0.062127
-0.006922
0.004191
0.105254
-0.101049
-0.034100
0.035836
0.054319
-0.022783
0.060272
-0.007526
0.073172
-0.040290
-0.060371
-0.084824
0.061610
-0.006950
0.040635
0.144437
0.066792
-0.029522
-0.030055
-0.033877
-0.007912
-0.055894
-0.087631
0.032287
0.123149
0.091120
0.035722
0.016701
0.141429
0.059041
0.073705
-0.001531
0.026046
-0.009936
0.094075
-0.051292
0.054655
0.041990
0.028340
-0.015092
0.074597
-0.043090
-0.098028
0.002879
-0.037299
0.079649
-0.014495
0.060102
0.044662
-0.022448
-0.007167
-0.031300
-0.024568
-0.077250
-0.059725
0.053526
0.020858
-0.139064
-0.109469
0.012503
0.091645
0.007300
-0.069044
0.101555
0.013855
0.140512
-0.043812
-0.038767
-0.095110
-0.005993
-0.023505
-0.021932
-0.032019
0.087115
-0.056271
-0.076035
0.047233
0.028042
-0.047294
0.017345
-0.013907
-0.057927
-0.110884
-0.042415
-0.049846
0.082522
-0.051395
-0.017504
0.051011
0.025654
-0.117485
0.082866
0.044384
-0.101504
-0.039202
0.026242
0.006888
-0.037846
-0.073526
-0.002369
-0.055450
-0.008145
0.009816
-0.067007
0.000790
-0.085344
-0.037900
0.046725
-0.007827
0.073132
0.085504
-0.005469
-0.042192
0.105082
0.011741
0.000068
0.020390
0.041463
0.027489
0.009109
-0.069912
-0.084315
-0.080945
0.059543
0.005318
-0.075772
-0.008782
0.042118
0.079169
-0.022291
-0.057693
0.091774
0.033874
-0.119826
0.027558
0.031635
-0.061078
-0.040507
0.076582
0.010350
0.014408
0.060870
0.024208
-0.007809
-0.058058
-0.045084
-0.029087
-0.031176
0.046429
0.024875
0.047969
-0.024026
-0.071938
0.089687
0.009539
0.029418
-0.003805
0.052643
-0.114098
0.012592
-0.077507
0.038075
-0.003655
0.053002
-0.041584
-0.006798
0.042809
0.057820
0.071287
0.042722
-0.068995
-0.052719
-0.065094
0.030973
0.051723
0.034813
0.024116
-0.078243
0.067941
-0.048565
-0.042546
0.048793
0.026061
-0.053735
0.068412
0.042673
0.068628
0.003212
0.064312
-0.002224
0.021438
0.022229
-0.007713
-0.078193
0.027315
0.019554
-0.007765
0.032318
-0.049062
-0.062356
-0.089754
0.064418
0.027239
-0.057764
-0.078500
-0.034601
0.051967
-0.035307
-0.092511
0.025364
0.072806
-0.005152
-0.063362
0.028461
-0.065158
0.070002
0.073031
-0.039105
-0.009809
0.044242
-0.088847
-0.087770
0.064643
-0.043367
-0.107036
-0.017379
-0.047080
-0.004996
-0.019144
0.004549
-0.040324
0.026456
-0.093966
0.045969
-0.030153
-0.094071
-0.075758
-0.033398
-0.089656
0.030699
-0.063020
-0.072920
0.086186
0.011881
-0.036646
-0.080210
0.026649
-0.089246
0.016269
0.080632
-0.033413
-0.081708
-0.052761
0.012873
0.007068
0.044686
0.084169
0.044375
-0.088416
0.079632
-0.012417
-0.048762
0.045217
0.050114
-0.003791
0.057699
0.018970
-0.086138
-0.055375
-0.021484
-0.068615
-0.037843
0.065673
0.037539
-0.094384
0.087550
0.059166
-0.006599
-0.012271
0.024912
-0.063720
0.051920
0.105149
0.030052
0.065574
-0.047661
-0.072396
0.064911
-0.072720
-0.092097
0.039236
0.076223
-0.001089
0.083916
-0.092150
-0.049900
0.070961
0.065225
-0.005076
-0.059051
0.069439
0.065205
-0.064311
-0.089098
0.009305
0.078218
0.042318
0.004506
-0.089077
-0.016102
-0.024716
-0.058489
0.043059
-0.075418
0.092199
-0.016634
0.048638
-0.026931
0.081607
-0.081412
0.086972
0.049925
0.082842
0.051274
0.032953
0.007473
-0.022842
-0.007003
0.074429
-0.013541
-0.017925
-0.086204
0.039024
-0.023004
-0.010980
0.002820
0.050302
-0.007016
0.041119
-0.050601
-0.080562
0.047525
-0.053391
-0.080646
0.090746
-0.071526
0.055849
0.015396
-0.004027
0.006673
0.016112
0.058250
-0.045606
-0.034741
0.027846
0.028211
-0.074256
0.019026
0.007535
0.004538
-0.073234
0.037135
0.085437
0.047129
0.006798
0.104287
-0.068380
-0.062467
-0.053021
0.037731
-0.083316
-0.064731
0.083309
0.043876
-0.015134
-0.028043
0.040846
0.039617
0.010491
0.059912
0.029906
0.072958
-0.019133
0.065091
-0.090481
0.083804
-0.042857
-0.023330
0.113034
0.036055
0.103350
-0.049079
-0.047637
0.049172
-0.093731
0.048136
0.042814
-0.084980
-0.055052
-0.057895
0.048824
-0.032491
0.016632
-0.092534
0.060181
-0.001802
0.053451
-0.016586
-0.005316
-0.034822
0.022573
0.019199
-0.041407
0.056073
0.071879
-0.110731
0.023562
-0.041170
0.000546
-0.065990
0.073979
-0.051431
-0.009223
-0.076605
0.011465
0.034357
-0.115042
0.067668
-0.005906
-0.048811
0.057708
0.108831
-0.037369
0.057530
-0.061694
0.040690
-0.035097
-0.024325
-0.167399
-0.088391
0.161421
0.005495
-0.049416
0.084833
-0.087515
-0.016816
-0.030358
-0.067130
-0.138328
0.077394
-0.014773
-0.070224
-0.100119
0.036791
0.056243
0.010077
-0.097117
-0.017068
-0.050310
0.018193
-0.003737
0.049663
0.066937
0.032110
0.005733
-0.001809
0.169259
-0.029598
-0.041700
0.034284
0.036763
0.088038
0.085059
-0.059340
-0.042262
-0.099607
-0.049451
-0.065018
-0.139832
0.047982
-0.005798
0.069773
0.012272
0.011743
-0.084499
0.040472
-0.026950
-0.098743
-0.060435
0.031572
0.001322
-0.011592
-0.010099
0.116067
0.070259
-0.005189
-0.076901
-0.043658
0.030752
-0.054497
0.105221
0.052179
0.037520
-0.004132
-0.092373
-0.058646
-0.060120
0.062637
-0.039219
0.022611
0.158837
-0.090036
-0.025798
-0.020179
-0.053530
0.018937
-0.062362
0.056111
-0.067088
0.104341
0.127318
0.093105
0.071303
0.008135
0.091400
-0.077617
0.041449
0.072348
0.104787
-0.047577
0.000611
0.085592
0.025897
-0.078025
0.086895
-0.074408
0.012788
0.131686
-0.107909
0.079952
0.058500
-0.056319
0.121242
-0.017513
-0.025018
0.126771
-0.084381
0.014446
-0.105073
-0.003872
-0.139531
-0.030225
0.007103
0.026105
0.080465
-0.070596
0.046909
0.076648
-0.056447
0.052077
-0.011517
0.016483
-0.001360
0.098808
0.133535
0.004268
0.125330
0.033880
-0.039993
0.037582
0.016236
0.083242
-0.066181
-0.145115
-0.052640
0.009153
-0.061639
-0.031118
-0.040372
0.052983
0.070013
-0.152972
0.116169
0.066349
0.013189
-0.128170
-0.039285
0.060357
0.081104
0.074293
0.008650
-0.070723
-0.093004
-0.067927
-0.002272
-0.023447
-0.078845
-0.002369
-0.051285
0.067992
0.067487
0.096201
0.045925
0.095196
-0.046395
-0.059719
-0.039463
-0.081172
-0.029497
0.044480
-0.045963
0.063260
-0.053237
-0.100923
-0.065714
-0.031340
0.086001
-0.002473
-0.019998
0.048435
0.049658
0.025524
0.016618
0.089956
0.143618
-0.027825
0.088768
0.074159
0.010355
-0.069253
0.099599
0.091157
0.052959
-0.003026
0.022767
0.033318
0.004630
-0.052527
-0.029265
-0.032552
0.054180
0.099157
0.091324
0.048440
0.001112
-0.038042
-0.010090
-0.047504
-0.081570
-0.113650
-0.050830
0.074917
0.112442
0.005651
0.034605
-0.031845
0.106980
0.131719
0.043777
-0.046766
-0.107496
-0.113203
0.031261
0.085947
0.039655
-0.002706
-0.041793
-0.085835
0.050649
-0.085500
-0.068515
0.021929
-0.021986
-0.012934
-0.032344
-0.057915
0.067732
-0.128156
0.117198
0.064179
-0.028502
0.079754
-0.025082
0.032322
-0.036193
0.074162
0.011490
-0.027407
0.087520
0.020083
-0.085252
0.012893
0.038618
-0.005578
0.001707
-0.050822
-0.091962
0.065543
0.041179
-0.061006
-0.103490
0.023896
0.023701
0.089136
0.052692
-0.130380
-0.068883
-0.001512
-0.036893
0.051012
-0.052326
0.052841
-0.015701
-0.049135
0.064409
0.067887
0.039521
-0.026589
-0.010649
0.074199
-0.096950
-0.006942
0.022971
-0.066099
-0.043044
0.019867
0.044381
0.032966
-0.036140
0.007788
0.010402
0.018326
-0.020863
0.006326
0.092735
-0.005206
-0.040118
0.086542
-0.071946
-0.064137
0.010573
0.031084
0.040003
-0.003333
-0.097109
0.101375
-0.048608
0.016537
0.094653
0.034372
0.018458
0.072087
0.041235
-0.021243
-0.103054
0.035780
0.000587
-0.004493
0.078501
-0.036985
-0.055678
-0.055221
-0.103325
-0.017789
-0.070727
0.000092
0.080364
0.015997
-0.113373
0.059959
-0.044426
0.074575
0.039116
-0.001718
-0.000548
0.068498
0.005842
-0.002770
-0.088296
-0.064179
-0.006635
-0.016946
-0.047498
-0.099377
-0.075747
0.097813
-0.022958
0.018910
-0.073902
0.066547
0.057469
-0.072324
-0.025743
0.070554
-0.082764
0.065854
-0.093663
-0.046603
0.027813
-0.059806
0.038622
0.019318
0.110340
-0.090423
-0.018925
-0.045686
-0.055650
0.038320
0.039950
0.072639
0.088199
-0.055559
-0.003663
0.010286
-0.051079
0.015076
-0.012446
0.054607
-0.028088
0.035964
0.133951
0.017781
0.022616
-0.013792
0.136039
-0.039759
-0.064537
0.078868
0.125492
0.035538
-0.085122
0.053074
0.101247
-0.105495
0.015650
0.080396
0.072167
-0.072908
-0.109699
-0.058312
0.018924
-0.058900
-0.053965
0.023903
0.007105
0.054331
0.025871
-0.013010
0.076292
0.131215
-0.077982
-0.081530
-0.009254
-0.041504
-0.061196
0.152853
0.061463
0.011254
-0.043753
-0.067282
-0.072168
0.046223
-0.018054
-0.082303
0.114111
0.103833
-0.005082
0.090927
0.145676
0.105479
0.094709
-0.061850
0.059503
-0.068507
0.093977
0.035039
-0.034292
-0.013361
0.057410
0.005741
0.098784
-0.049677
-0.011745
-0.106031
0.005008
-0.019865
0.028959
0.072824
0.061487
0.022622
0.022204
-0.041113
0.056611
0.080503
0.054915
-0.083096
-0.009087
0.093466
-0.118168
-0.040257
0.057693
0.091392
0.022084
0.069991
-0.036503
-0.029560
0.034161
-0.076305
-0.048510
0.028420
-0.039046
0.096720
0.132206
-0.041349
-0.075431
0.051603
-0.038239
0.075904
-0.039475
0.061132
0.112835
-0.020353
-0.013804
0.088933
0.047997
0.062621
-0.020109
-0.055506
-0.020345
0.035414
0.117639
-0.016962
0.078623
0.069926
0.063577
-0.028373
-0.054905
0.002850
-0.080864
-0.059348
-0.017163
-0.049329
-0.112810
-0.072129
0.114918
0.040668
-0.022142
-0.113595
-0.001697
0.082681
-0.052653
0.023408
-0.001487
-0.137020
0.039015
-0.104414
0.040182
-0.067744
0.010050
0.093061
-0.011395
-0.075833
0.079096
-0.003189
-0.093104
-0.007347
0.040341
-0.041047
0.069133
0.026080
-0.005797
-0.013792
-0.017718
-0.041478
-0.083176
0.062388
0.030021
-0.025827
-0.115456
0.088900
0.059002
-0.033820
0.017885
-0.042527
-0.118787
-0.098387
-0.082427
-0.048304
-0.080256
-0.029872
-0.016809
-0.011287
0.056628
0.073466
0.016124
-0.106322
0.083185
-0.071420
0.033346
-0.078426
0.073993
0.011348
0.022810
-0.146081
0.160794
-0.021222
0.065430
0.038527
0.040321
-0.068457
-0.040889
0.032583
0.021239
0.062778
-0.061662
-0.035519
-0.013248
0.006955
0.009393
-0.055470
0.066499
0.136177
0.119872
-0.076554
-0.022507
-0.011343
0.104437
0.071423
-0.093660
0.022137
-0.014379
-0.044210
-0.046326
-0.064478
0.009690
0.057710
0.061423
-0.023632
-0.065321
0.069292
0.007884
-0.013506
-0.040113
0.009432
-0.027160
0.017132
-0.036169
0.086350
0.053729
-0.073792
-0.011152
-0.001268
-0.029430
0.036978
-0.084030
-0.020159
0.046834
-0.089833
0.087930
0.034801
0.047302
0.001073
0.009636
-0.052069
-0.005157
0.047285
-0.056965
-0.065205
-0.077673
0.066044
-0.043295
-0.058441
-0.012630
-0.053820
-0.040235
0.036556
-0.043879
0.053664
0.008622
-0.082464
-0.037353
-0.081804
0.085152
0.029012
0.083081
0.039596
0.005954
0.083492
-0.042799
-0.080259
-0.075723
-0.000577
-0.020836
-0.089158
-0.077350
0.069715
0.075286
0.070903
-0.024353
-0.014884
0.011582
-0.051912
0.024401
0.001321
-0.090665
0.083676
0.049467
-0.028026
0.018226
0.054727
0.045375
-0.020298
-0.065824
-0.014044
0.047968
0.051504
-0.032481
0.075038
-0.021037
0.056862
-0.007692
0.004484
0.021092
0.049755
-0.064108
0.006978
0.059948
0.016648
0.042366
-0.085191
-0.018871
-0.084426
0.003277
-0.063810
0.011702
0.050785
-0.039411
-0.023677
-0.054887
-0.025651
-0.013465
-0.051844
-0.033033
0.076237
0.039268
0.014461
-0.006854
-0.059777
0.038957
-0.089297
-0.075836
-0.040794
-0.042638
-0.049172
-0.073757
0.050447
0.002247
-0.063444
-0.010910
-0.101339
0.076038
-0.002852
-0.020388
-0.049636
0.054290
-0.053195
0.123259
0.107531
-0.006362
-0.100670
0.046061
0.108984
0.049938
0.051108
0.035578
-0.135836
-0.088670
-0.077974
-0.050163
-0.090356
0.023174
-0.046550
0.044757
0.044616
0.059490
0.023119
0.089894
-0.053811
0.087650
0.055824
0.023082
0.025926
0.062762
-0.086140
-0.070632
0.088462
-0.055043
-0.011333
-0.022477
0.022662
0.033424
-0.061980
-0.066126
-0.118948
0.023762
-0.068761
-0.067289
0.051620
0.086542
-0.009085
-0.046236
0.117901
0.060215
-0.094087
0.048059
0.138337
0.061095
0.053550
0.034554
0.102621
0.083295
-0.033987
-0.075095
0.064993
-0.068583
-0.015417
0.043681
0.058952
-0.002953
-0.106687
-0.046963
-0.035689
0.071277
0.110524
-0.070092
-0.063959
-0.078644
-0.021372
-0.026952
-0.001061
0.069181
-0.009569
-0.067650
0.067798
-0.055865
-0.073578
-0.048638
0.011285
0.105653
0.046469
0.024998
-0.113004
-0.022290
-0.057478
-0.092842
-0.090595
-0.130255
-0.092559
0.050120
-0.030420
0.099009
-0.045136
-0.129732
0.072494
-0.058711
-0.007103
-0.003740
-0.049281
0.018912
-0.103839
-0.089702
-0.009049
0.056656
0.077337
0.083073
0.038362
0.112038
-0.087215
-0.058122
0.003176
0.002257
-0.058391
0.093852
0.109398
0.166432
0.016519
0.042158
0.090126
0.040227
-0.030918
0.029195
-0.092968
-0.045109
0.110338
-0.093946
-0.132157
0.006571
-0.045865
0.043908
0.095818
0.073886
-0.060468
-0.083838
0.034424
-0.060146
-0.041336
-0.024698
-0.030576
-0.042027
0.057354
-0.049991
-0.056434
-0.097660
0.039959
-0.028073
0.046248
-0.023125
0.026472
0.070161
0.041587
-0.008597
-0.026496
0.049308
0.075783
-0.047645
0.044088
0.034431
-0.010161
0.065471
-0.057866
-0.038305
0.083160
0.030175
-0.074735
0.021721
0.066857
0.022425
-0.045340
-0.101202
-0.009549
0.144992
0.058290
0.103047
-0.037303
-0.107344
-0.023356
-0.054149
0.050926
-0.076535
-0.001743
0.101264
0.005365
-0.108379
-0.058326
-0.043040
-0.132376
-0.049351
-0.079262
0.040147
0.054134
0.003694
-0.077333
-0.058867
-0.009752
-0.023842
0.036866
-0.017028
0.077425
0.037616
0.003391
-0.020175
-0.004720
0.054791
0.032102
0.097027
-0.010533
0.095060
0.164108
-0.016151
-0.119761
0.039166
0.030911
-0.027778
0.101908
0.053161
0.068423
0.134973
0.024676
-0.005126
0.051459
0.000098
-0.082986
0.059105
-0.056533
0.047872
0.108468
0.071728
-0.074823
0.074376
0.081667
0.001438
0.010070
0.079008
0.065199
0.015986
-0.075945
-0.086389
-0.056343
-0.043120
-0.083715
-0.103685
0.052252
0.026967
-0.110232
-0.081591
0.028290
-0.037484
-0.092669
-0.017350
-0.039959
-0.075543
0.054965
-0.043280
-0.052484
-0.101182
-0.031473
-0.062451
0.061457
0.012971
-0.031204
-0.074155
-0.064506
-0.063944
0.086467
0.008914
-0.019707
-0.047204
0.022446
0.110095
-0.105832
-0.001539
-0.004403
-0.057766
-0.023666
0.086504
-0.076395
-0.053483
-0.014412
0.081226
0.013180
-0.010589
0.036593
-0.071539
0.067562
-0.020882
-0.088239
0.013172
0.066743
0.068807
0.034401
0.056891
-0.006116
0.048230
0.061621
0.077875
-0.075366
-0.096261
0.002620
-0.069314
0.070153
0.047628
0.063183
0.034390
-0.010813
-0.012008
0.067892
-0.034905
-0.021070
0.028954
0.030093
-0.007217
-0.068675
0.021311
0.008540
0.022026
0.014021
-0.089716
-0.055875
0.045965
0.050418
-0.021731
-0.026761
-0.055206
0.038199
-0.012083
0.024459
0.082143
0.055244
-0.092431
-0.001273
-0.096691
0.036256
0.031855
-0.013775
-0.061969
0.024332
0.033561
0.065548
0.060634
0.068287
0.029319
-0.069543
-0.009027
0.027162
-0.000022
0.058123
-0.105419
0.045760
-0.062087
0.052824
0.063907
0.001474
-0.024385
0.008823
0.012708
-0.055926
0.066637
-0.032515
-0.064802
0.016736
0.050652
-0.068745
-0.057545
0.024584
0.004269
-0.062428
-0.073469
0.020476
-0.079973
-0.092942
0.001462
-0.043551
0.082912
-0.012919
-0.061649
0.020312
-0.027444
0.011281
0.034734
0.035432
-0.057703
-0.066856
-0.044667
0.020163
-0.047729
-0.059716
-0.011340
0.036717
0.023733
-0.010278
0.052862
-0.082084
-0.018101
-0.002941
0.054448
0.028799
0.020547
0.072528
0.049282
-0.010431
0.044770
0.081482
0.028126
0.062025
-0.048392
0.020319
0.053203
0.004539
0.052616
-0.077781
-0.058076
0.066511
-0.064313
-0.043743
-0.068206
-0.032651
0.052482
0.028243
0.019879
-0.060397
-0.020022
-0.018613
0.008204
-0.067991
0.063167
-0.079594
0.031613
0.054991
0.020393
0.049048
0.058625
-0.054036
0.017020
-0.052935
0.078540
-0.087306
0.063025
-0.070864
-0.038376
-0.064691
0.001620
-0.085141
-0.089346
-0.071326
-0.050388
0.069592
-0.048056
0.051232
-0.071636
-0.005966
-0.076165
0.007262
-0.084549
0.089251
0.089421
-0.070166
0.042646
-0.042861
0.035018
0.078986
-0.072934
0.027259
-0.087663
0.071222
-0.009363
-0.005219
0.062525
-0.042887
0.007200
0.135064
-0.099870
-0.037000
0.000199
0.040640
-0.084020
0.077525
0.003428
-0.033973
0.093721
-0.091036
-0.037630
0.030049
-0.020275
-0.110892
-0.037410
0.119704
-0.006669
0.041076
0.049117
-0.003918
-0.008033
-0.122073
0.060626
-0.017630
0.041915
-0.029292
-0.002992
-0.045416
0.001568
-0.045604
-0.016866
-0.016043
0.002412
-0.081500
0.037871
0.135265
0.024909
0.124363
0.038776
0.051384
0.018696
-0.020736
0.031910
-0.052530
0.100104
0.037921
-0.057043
0.019256
-0.088996
0.137696
-0.089486
-0.020331
-0.047012
0.031839
-0.126389
-0.043399
-0.017992
-0.059147
-0.030800
0.032414
-0.031437
-0.032044
0.151547
-0.054340
0.027379
-0.008046
0.054419
0.042617
0.050325
-0.043613
0.003832
-0.081864
0.076845
0.044799
0.027809
-0.078293
-0.024825
-0.023116
0.091761
-0.104704
0.076770
-0.030535
0.034126
0.012696
-0.039311
-0.005307
0.082942
0.120061
-0.049137
-0.008166
-0.009710
0.035129
0.075985
0.088783
-0.056829
-0.012644
-0.029599
0.087298
0.039526
-0.038670
-0.104430
-0.010748
0.036301
0.087876
0.021063
0.056672
-0.088522
-0.076176
-0.007041
-0.033602
0.068404
-0.027091
0.052199
0.056578
0.063700
0.059551
-0.074412
-0.000540
0.048391
0.108175
-0.171241
-0.075493
0.016990
0.030138
0.060960
0.046892
0.125279
0.127868
0.008505
0.040380
-0.059315
0.163636
0.151198
-0.027386
-0.154943
0.134232
-0.016306
-0.091212
-0.214653
-0.032430
0.050186
0.039099
-0.039786
-0.054944
0.097182
0.044223
-0.160244
0.094514
-0.044103
-0.055821
0.134739
-0.073612
0.036575
-0.025342
0.062145
0.074559
-0.080066
-0.047078
-0.029965
-0.113109
-0.125356
0.004322
0.048012
-0.044221
0.088834
-0.009782
0.009351
-0.021425
0.025735
0.090193
-0.009269
0.074310
0.004183
-0.173468
-0.068055
0.004704
-0.034874
0.065083
-0.006754
0.073002
-0.054430
0.001472
0.079883
0.038704
-0.013581
-0.103474
-0.033082
0.003659
-0.018895
0.031446
0.067218
-0.026100
0.060130
0.054760
0.020173
-0.031567
-0.068820
-0.084604
0.042887
-0.092472
0.126024
-0.130765
0.101969
-0.082055
-0.109230
-0.025731
-0.068027
0.018403
-0.192258
0.009326
0.076579
0.071843
-0.020853
0.087169
-0.138708
-0.136501
0.007624
0.182849
-0.053965
-0.150586
0.080685
0.067073
0.019222
-0.043267
-0.008857
0.056870
0.060587
0.000723
-0.043084
-0.080339
0.000060
0.043854
0.125177
0.022804
-0.129172
0.013283
-0.119870
-0.074576
0.077607
-0.060177
-0.082216
-0.066724
-0.019253
-0.037666
-0.075141
-0.050831
0.030630
0.032773
-0.044694
-0.068767
-0.090988
0.067726
-0.103307
0.119447
0.011109
0.052983
0.060412
0.017097
0.067407
-0.075480
-0.011642
0.133115
0.049390
0.063964
-0.051270
0.062184
0.011387
0.050434
-0.027880
0.071338
0.029364
0.009764
-0.109658
-0.030669
0.032430
0.009398
-0.022763
-0.011442
0.092359
0.021589
0.079972
-0.081532
0.017367
0.087958
0.033472
-0.089529
-0.059556
0.089877
-0.052678
0.004330
-0.075617
0.065595
-0.031276
-0.071471
0.022168
0.114856
0.066779
0.071813
-0.004278
0.102378
0.021416
0.032550
-0.022100
-0.099476
0.028654
0.010038
0.030660
0.122227
-0.117325
-0.012019
-0.015515
-0.053153
-0.065841
-0.081451
0.036645
0.005449
-0.033588
-0.008398
0.047627
0.004998
-0.082632
-0.124780
-0.054632
-0.056538
-0.059555
0.010496
-0.052515
0.088258
0.027079
0.019089
-0.012439
0.037686
0.092129
0.056042
-0.041631
0.075611
0.017814
-0.037259
0.034402
0.000704
0.041740
-0.039077
-0.003412
0.128155
0.039964
-0.052830
0.028917
0.074022
0.056779
0.000507
0.102736
-0.053981
-0.098746
-0.128629
-0.041827
0.068270
0.008621
0.075341
0.019976
0.071772
0.047804
0.061030
-0.079509
0.013210
0.051100
0.068522
-0.083178
-0.043745
-0.086268
0.010737
0.016275
0.056115
-0.050703
-0.079115
-0.025513
0.071059
-0.052629
-0.072827
0.101434
-0.059590
-0.086324
-0.112050
-0.063554
-0.036303
-0.111899
-0.075951
-0.108480
-0.047116
-0.055428
-0.043307
0.038155
-0.101878
-0.049208
-0.018605
-0.044968
0.094688
-0.042747
0.095583
0.047042
0.031013
0.058681
0.099623
0.007815
0.065237
0.082339
-0.087520
0.080005
-0.089903
0.040513
0.083107
-0.071564
-0.039348
-0.006066
0.089410
0.042907
0.016133
0.077496
0.030961
0.002291
0.089916
-0.093983
-0.016433
0.052320
0.039160
0.074727
-0.055421
-0.024986
0.085938
-0.068301
-0.073270
-0.111233
0.042013
0.079967
0.035171
-0.062812
0.012682
-0.024228
-0.083871
-0.049677
0.066056
-0.047888
0.020105
0.038544
0.014294
0.088135
-0.028771
-0.080375
-0.049539
0.046142
0.004512
0.041465
-0.021110
0.005794
-0.039652
-0.054252
-0.018198
-0.003471
-0.028989
-0.062471
0.009313
-0.020886
-0.014912
0.034204
0.063349
0.065917
-0.066649
0.092419
0.016296
-0.005711
0.056729
0.034004
-0.058939
0.129774
0.033714
0.000414
-0.025517
-0.032535
0.005082
0.062609
-0.087622
-0.023758
0.022077
-0.007224
0.078616
-0.009889
0.025884
-0.075584
-0.071312
-0.083089
0.080030
0.008394
-0.049711
-0.067881
0.034287
0.059993
0.033968
0.046952
0.076991
0.031247
0.044206
0.026501
0.059418
-0.027520
-0.032427
0.071305
-0.090820
-0.038730
0.073382
-0.057055
0.086680
-0.075755
0.018757
0.058348
-0.060626
-0.044188
0.033525
0.159951
0.028177
0.118197
0.044683
-0.014930
0.055099
-0.013434
0.022274
-0.007429
0.003300
-0.037356
0.083464
-0.007591
0.024405
-0.006311
0.094629
-0.074201
0.122768
0.057822
0.022761
-0.063819
-0.089251
0.063106
-0.066679
0.019247
-0.014317
-0.098819
0.048639
0.074474
-0.040281
-0.084960
0.024915
-0.048489
-0.055248
-0.096662
0.045547
0.084945
0.006757
-0.040445
0.056845
0.080004
0.023925
-0.000523
-0.102297
-0.003588
-0.037859
-0.054296
-0.056133
0.050201
0.048638
0.059808
0.003247
0.154160
-0.025286
-0.085634
-0.025575
0.095206
-0.073286
0.141264
0.068087
0.032876
-0.114566
-0.089782
0.001162
0.008399
-0.043927
-0.011945
-0.043609
0.112193
-0.086264
-0.021851
-0.002523
-0.052039
-0.085895
0.062772
-0.046882
0.033228
-0.122521
0.011586
-0.074585
-0.119494
0.099596
-0.097924
0.037427
-0.082154
-0.154370
0.042471
0.089877
0.103559
-0.000570
-0.022970
-0.055523
-0.033959
0.079119
0.060588
0.060019
-0.058777
-0.101068
0.118109
0.109846
0.023349
-0.002822
0.061656
0.055320
0.027431
0.027057
-0.125052
-0.005548
0.048547
-0.025322
-0.011648
0.045510
-0.051242
0.107837
-0.121562
0.068018
0.079721
0.079939
0.086470
0.101032
0.135816
-0.103740
-0.168663
0.071558
0.032930
0.128409
-0.076653
0.161766
-0.079529
-0.066636
0.059188
0.007644
-0.022655
0.051565
-0.033770
-0.137766
0.050488
0.146568
0.115976
0.091620
-0.084281
-0.047999
0.023097
-0.048898
-0.050959
-0.063687
-0.018239
0.076925
0.032603
-0.019390
-0.052117
0.022832
0.083486
0.045868
-0.052041
-0.069261
0.036231
-0.066683
-0.022216
0.102401
0.023484
0.065081
0.101357
0.053802
-0.085756
0.121676
0.021200
-0.012158
-0.008313
0.009916
0.040340
0.103944
0.083476
0.113753
0.081292
-0.033200
0.064802
0.064969
-0.006699
0.092708
0.018375
0.148258
-0.076776
0.033642
-0.094421
0.038111
0.020830
-0.145035
0.094378
0.022706
0.007329
-0.122114
-0.102091
-0.006374
0.037000
0.115497
0.062709
0.010095
-0.083955
-0.062236
0.119611
-0.034140
0.156536
-0.007808
0.058380
0.031608
-0.144902
0.022642
-0.096528
0.043548
0.127851
-0.007159
0.025796
0.008408
-0.108754
0.077150
0.078237
-0.003828
-0.043716
-0.114388
0.032590
-0.109162
-0.082059
-0.026028
0.069150
-0.037226
-0.064574
0.065505
0.028494
-0.028701
-0.080962
0.078228
0.020158
0.055561
0.081819
-0.006812
0.114912
0.030252
0.004540
0.006071
-0.121639
-0.098373
0.034867
-0.031837
0.078678
-0.127919
-0.080408
-0.093425
0.057869
0.031383
-0.066704
-0.064582
0.008423
-0.042928
0.078155
-0.036034
-0.074289
0.007928
0.051918
0.029135
-0.014678
0.041283
-0.069706
0.072813
0.127032
0.074296
-0.016639
0.080301
0.032860
-0.107803
0.080493
-0.097461
-0.070052
0.042965
-0.012628
-0.085246
-0.044686
0.098508
0.096108
-0.085803
0.008891
-0.018846
0.048098
0.007654
-0.026881
-0.039816
0.059874
0.112363
0.011681
0.028008
0.074505
0.027089
-0.101990
-0.016232
-0.001655
-0.060738
-0.024108
0.058193
0.039231
-0.022917
-0.084274
0.102123
0.025389
0.059285
0.069559
0.063434
-0.095595
-0.111765
-0.094992
-0.013583
0.079863
-0.016605
0.044641
0.083643
0.005390
0.088048
-0.056692
-0.079557
-0.055084
0.077224
0.052163
-0.034612
0.056312
0.059465
0.049026
0.005669
-0.126852
-0.006980
-0.005501
0.091074
0.071668
0.009321
-0.029807
-0.010496
0.045881
0.056195
0.060680
-0.013286
0.005533
-0.155049
-0.089063
0.044412
0.033989
-0.031992
-0.008061
-0.026166
-0.011203
0.036054
-0.038663
0.000346
0.102235
-0.020444
-0.042684
-0.068795
0.002417
0.022302
0.122529
0.122446
0.066681
0.079250
-0.014406
0.075700
0.002420
0.098786
-0.112048
0.003815
-0.000927
-0.032157
0.046864
-0.022403
0.072062
0.050427
-0.009773
0.011598
0.066561
0.038270
0.047124
-0.057221
0.093314
-0.093719
-0.073113
0.081447
-0.081902
-0.038602
0.062864
0.000826
-0.056347
-0.038798
0.026790
0.038879
-0.071715
-0.079633
0.117864
-0.040418
0.100676
0.009276
0.078809
0.001506
-0.064088
-0.075453
0.102055
-0.076927
-0.075145
0.057724
0.086610
0.009064
-0.096372
-0.044013
0.122027
-0.054019
0.065699
-0.014839
-0.010855
-0.105934
-0.027101
-0.125798
-0.070393
0.040306
-0.089067
0.020163
-0.126371
-0.103565
0.045238
0.032203
0.110385
-0.073000
0.028822
-0.054179
-0.024170
-0.075065
0.009931
-0.059983
0.131075
-0.001382
-0.074944
-0.029099
0.054240
-0.000944
0.064638
0.088239
-0.032468
0.046395
0.074254
-0.031989
-0.016437
-0.057473
0.073355
0.043265
0.012608
0.056005
0.037136
-0.060604
-0.030138
-0.087901
-0.043476
0.052898
0.004118
-0.090134
0.036782
0.005431
-0.037751
-0.071074
-0.032998
-0.063364
-0.034406
-0.033338
-0.049222
-0.032649
0.074692
-0.091549
-0.003020
0.041256
0.078896
-0.040149
0.046292
-0.069475
0.001047
-0.071221
0.004738
0.009175
0.032436
0.006263
-0.020166
-0.008619
-0.012456
0.038564
-0.049208
-0.037190
-0.009892
0.037790
0.078579
-0.079207
0.062824
0.060017
0.046856
0.062723
-0.036825
-0.039695
-0.081631
0.046502
0.017928
-0.088949
0.034910
0.064114
-0.019231
0.002989
-0.042277
-0.014429
-0.022804
-0.033199
0.067398
-0.061316
-0.046469
0.054309
-0.010035
-0.051913
0.021962
-0.029440
-0.089208
0.087446
-0.022663
0.025024
0.035521
-0.049352
-0.007257
-0.075202
0.024225
0.046626
-0.052315
-0.004779
0.020363
0.021410
0.070090
-0.002917
0.070941
-0.048043
-0.065401
-0.020627
0.079753
0.043559
-0.069268
-0.049935
-0.082686
0.055639
0.031461
0.029797
-0.072862
-0.097515
0.008742
0.056807
-0.091615
0.005296
0.066301
-0.090395
0.031855
-0.030173
-0.012647
0.095572
-0.005456
-0.086472
-0.006893
0.034793
-0.019264
-0.017333
0.040263
-0.061732
-0.008254
0.038875
-0.002085
0.012099
-0.074068
0.064641
-0.015664
0.048320
-0.006617
0.081058
0.047794
0.101443
-0.085698
-0.057973
0.028571
-0.036857
-0.079768
0.062818
0.031234
0.080336
-0.047346
-0.015298
-0.019562
0.007257
-0.021404
-0.088347
0.053442
0.035060
-0.029534
-0.016826
-0.085081
-0.025168
-0.087262
0.023449
0.032881
0.062982
0.037619
-0.075684
0.018535
-0.011272
0.023255
0.019220
0.060303
-0.008341
0.040713
0.042127
-0.059976
-0.045008
0.013045
-0.080577
0.044092
0.009147
-0.057047
0.004846
-0.042487
0.002793
0.081046
-0.074273
-0.033335
-0.066125
0.042257
-0.000124
-0.012272
0.016777
0.018127
-0.069761
0.008221
0.031355
0.049473
0.065128
-0.048783
-0.017190
0.013795
-0.070837
-0.062368
-0.056410
-0.059427
-0.019780
-0.049368
-0.095075
0.033583
0.037928
-0.014426
0.006486
-0.020031
-0.033905
-0.023868
-0.001517
0.013082
0.048729
-0.013435
0.009935
-0.093166
0.073336
0.070920
-0.028362
-0.068584
0.070225
-0.049035
0.001658
-0.012314
0.111935
-0.038129
0.074094
0.020232
0.058895
-0.075129
-0.039201
-0.007061
0.063973
-0.014318
-0.008195
-0.079928
-0.045527
-0.006223
0.068260
0.077319
0.056916
-0.075088
0.065568
-0.075602
-0.060517
0.055723
-0.004040
0.003453
-0.039506
0.082402
-0.048482
-0.037649
-0.063464
-0.003604
0.063579
0.066007
0.072291
-0.029407
0.003691
-0.044120
0.078821
-0.053558
0.012988
-0.037568
0.037480
-0.097275
-0.028132
-0.037263
0.018276
0.018948
-0.046700
0.150046
-0.042900
-0.054766
0.064045
-0.068095
-0.132886
-0.046600
0.036553
-0.057992
0.042220
0.093461
-0.008135
-0.055901
-0.004029
0.022742
-0.057194
0.000376
-0.015642
-0.029145
-0.098983
0.029537
0.074323
0.010623
0.029127
-0.004702
-0.004291
0.061304
-0.083081
0.014106
0.056416
0.079222
-0.068884
0.040828
-0.043699
0.090583
0.089302
0.022494
-0.006662
-0.043564
-0.078729
0.047898
-0.058832
0.031053
-0.045371
0.012854
-0.003051
-0.042880
0.030770
0.083539
-0.036853
-0.073339
0.067187
-0.047684
0.069923
0.064790
0.034317
0.076755
-0.105290
-0.010504
-0.085724
0.114015
0.044365
-0.029666
-0.033481
-0.039634
-0.115401
0.103075
0.086808
-0.031572
-0.048623
0.021210
0.068610
-0.079880
-0.057900
0.001437
0.049305
0.110501
0.030404
0.062165
0.094742
-0.007142
0.006549
0.070528
0.046822
0.002801
0.087208
-0.014190
0.041591
-0.026338
-0.035403
0.122494
0.031975
-0.076048
-0.030717
0.036680
0.051891
0.027999
0.093039
-0.115481
0.047732
-0.111471
-0.004923
-0.012353
-0.011451
0.097762
0.095318
0.019746
-0.023756
0.012692
0.059403
0.011014
0.145471
-0.058344
-0.010822
-0.031148
-0.008676
0.115770
0.024663
-0.078945
-0.051076
0.029548
0.055329
0.020935
0.046511
0.083960
-0.061006
-0.038804
0.033000
-0.083193
-0.099905
0.004873
0.127147
-0.012700
0.099904
0.030524
0.095240
-0.022194
-0.056072
0.083142
0.075819
-0.031538
0.029741
-0.056264
-0.008388
0.167459
-0.071200
-0.019280
-0.090296
0.091207
0.011091
-0.029093
0.002733
-0.079692
-0.029506
0.070696
-0.005675
0.062600
0.038046
-0.038950
0.097568
-0.041701
-0.018562
-0.051875
-0.111245
-0.134603
-0.090681
-0.060188
0.042373
0.062871
-0.018899
-0.052341
0.147234
0.053946
-0.090386
-0.049860
-0.000727
-0.037127
-0.042016
0.070174
-0.082419
0.025555
-0.048139
-0.052245
-0.006972
0.110617
0.020560
0.010210
0.069169
-0.000916
0.087730
0.022416
-0.090437
-0.007674
-0.001368
0.036103
0.046616
-0.043312
-0.077122
0.057171
-0.000427
-0.041479
0.176147
-0.089956
0.067425
-0.084781
0.048401
0.125085
0.074910
0.086469
-0.056483
-0.021406
0.059196
0.004587
-0.002632
-0.007617
0.051743
0.004333
-0.027015
-0.014233
-0.026786
-0.050345
0.016665
0.006653
-0.067586
0.022512
-0.119948
0.049803
-0.061824
0.102847
-0.045459
-0.043664
-0.063076
0.125150
-0.062074
0.083552
0.048291
-0.056122
-0.107109
0.031392
0.054668
0.092589
-0.040748
-0.027245
-0.056278
-0.060497
0.085214
0.076370
-0.044584
0.038833
0.100985
-0.004377
0.045914
-0.073405
0.038298
-0.010298
0.007458
0.036018
0.029091
-0.064322
0.090689
-0.027224
0.138277
0.021768
-0.135725
-0.018796
0.000534
0.020660
0.013121
0.132499
-0.031646
0.111988
-0.048980
0.112044
-0.012889
-0.041507
-0.064294
0.054082
0.030048
0.008372
-0.002011
0.025804
0.038221
0.106119
-0.035347
0.007888
0.049252
-0.021613
-0.002983
-0.118710
-0.062845
-0.071731
0.025211
-0.012069
0.059018
-0.043047
-0.006054
-0.054264
-0.026066
-0.082180
0.004674
-0.085748
-0.132607
0.032209
0.014272
-0.116831
-0.015816
-0.016554
0.033215
0.126298
-0.041925
0.060881
0.039341
-0.022209
0.046830
0.092464
-0.034298
-0.067017
0.077626
0.042034
-0.123290
0.005591
-0.112998
-0.064735
0.049751
0.036669
0.062258
0.053815
0.044878
0.016409
0.071304
0.169193
0.099468
-0.056492
-0.005646
-0.079913
0.083159
0.029533
0.026564
-0.019876
0.016326
0.055389
-0.020607
0.020118
-0.008750
0.119988
-0.152073
-0.081766
-0.091713
0.034483
-0.101845
0.003263
0.104861
0.028054
0.008942
0.111889
0.073099
0.056903
0.041269
-0.005575
-0.003777
-0.038151
0.100555
0.058533
0.159953
0.062216
0.009910
-0.085601
-0.004982
0.049434
0.090773
0.048958
-0.039714
0.020851
-0.076001
0.092879
0.065729
-0.034990
0.090647
0.101063
0.039165
0.007108
-0.007373
0.032001
-0.039335
0.010620
0.037718
-0.051095
0.006505
-0.026382
-0.025321
0.077492
-0.080268
-0.089285
0.034151
-0.002464
-0.005290
0.042464
-0.061372
0.071929
-0.052182
0.121084
-0.046398
0.020544
-0.017252
-0.103777
-0.036712
-0.001539
-0.002180
0.013174
0.002953
-0.015153
-0.048903
0.049852
0.021531
0.023162
-0.051221
0.051180
-0.061126
-0.013481
-0.003472
-0.008935
-0.047768
0.027745
0.048582
-0.068426
0.060752
0.013046
0.044559
0.033104
0.037255
0.078107
-0.031005
0.007524
-0.045148
0.071916
-0.090861
-0.094362
0.017193
-0.041053
0.050084
-0.028407
0.106583
-0.067941
-0.017207
0.075554
0.064337
0.084723
0.075701
0.060820
0.070052
0.017931
0.018088
-0.031234
-0.050385
-0.011813
0.028587
-0.106602
-0.083737
0.009728
0.020566
0.067188
-0.070054
-0.063096
-0.009025
0.038657
-0.076431
-0.069024
0.094999
-0.037867
0.034975
-0.079374
0.020534
0.073351
0.021655
-0.050864
-0.083607
0.028066
0.063555
0.060380
-0.003509
0.005062
-0.091377
-0.071243
0.034827
0.059938
-0.093610
0.047857
-0.076455
-0.030534
0.008669
-0.062013
-0.050587
0.026706
-0.056669
0.003302
0.058965
-0.011673
-0.098947
-0.084962
0.011637
-0.012222
0.047260
-0.029987
-0.022168
0.046404
-0.004252
-0.046250
-0.028165
0.052466
-0.087510
-0.071428
-0.085517
-0.005211
0.046600
-0.073436
-0.078078
-0.081988
-0.051677
0.065168
0.048853
-0.050405
0.050305
-0.112501
0.025538
-0.068989
-0.017836
0.064034
-0.020484
-0.048966
-0.011312
0.056207
-0.005636
-0.033645
-0.037539
0.138272
-0.074842
-0.029740
0.001002
0.083774
-0.071549
-0.047326
0.036078
-0.080933
0.004604
-0.075784
0.007952
-0.001650
0.065409
0.075508
0.054543
-0.052604
-0.016278
-0.079937
-0.088443
-0.063795
-0.000703
-0.017155
0.001469
0.070797
0.025673
-0.068447
-0.006323
0.028595
-0.035714
-0.048149
0.049042
0.079740
-0.108608
-0.052685
0.071652
-0.072944
-0.018391
-0.086008
-0.072545
0.032923
-0.036438
0.008871
-0.006490
-0.019344
0.034544
-0.051160
-0.044746
-0.057508
0.033652
-0.014589
-0.071088
0.032245
-0.064073
-0.001405
-0.033955
0.021586
0.026090
-0.066995
-0.008745
0.074674
-0.025728
-0.070330
-0.029051
-0.036101
0.006959
-0.014252
0.007261
0.073337
-0.058903
-0.061772
0.070181
0.059936
-0.010242
-0.049933
-0.033704
0.018097
-0.005013
-0.055302
0.022240
-0.076451
0.013387
-0.075210
0.011581
-0.047837
-0.091908
-0.076296
0.056020
-0.073030
-0.084808
0.046133
-0.072041
0.041270
-0.080839
-0.017300
-0.004578
-0.063272
0.027557
0.079295
0.040811
0.051129
0.005448
0.012162
-0.013098
-0.038441
-0.044913
-0.060413
0.007576
-0.008236
-0.011549
0.073762
0.057245
-0.020609
0.013845
0.037349
0.058495
-0.056393
-0.084399
-0.063827
-0.028211
0.011901
0.041558
0.040988
-0.096643
0.078981
-0.068812
0.004477
0.023200
0.068136
-0.043951
-0.046332
0.033626
-0.032218
-0.005103
0.033262
0.042924
0.092373
-0.036147
-0.076815
-0.096779
0.062967
-0.021654
0.066905
-0.089276
-0.003779
-0.077449
0.041651
-0.079877
0.005262
-0.017098
0.048204
-0.069921
-0.049287
-0.075530
0.023573
-0.028849
0.013794
0.018246
-0.136819
-0.050333
-0.066286
0.047046
0.073437
-0.036080
0.003344
-0.009896
-0.093568
0.022603
0.089424
-0.048554
0.072779
-0.089678
0.031065
0.032840
0.058819
0.089153
0.053216
0.042644
-0.072454
-0.004492
-0.046636
0.093819
-0.061041
-0.084140
-0.038989
-0.011365
0.082671
0.026136
0.058898
0.137097
0.051793
-0.029090
-0.089882
-0.002548
0.048547
-0.010712
0.049630
-0.087616
-0.018650
-0.128344
0.021949
-0.004932
-0.049177
-0.038613
-0.033005
0.025211
0.058562
-0.000764
-0.007161
-0.108010
-0.034068
0.059152
0.055117
0.072489
-0.104722
-0.057877
0.081995
0.038746
0.023591
0.004372
-0.061511
-0.055400
-0.026066
-0.078764
-0.071200
0.057919
0.009611
0.065195
0.053637
-0.059160
-0.024676
-0.045667
-0.016972
-0.084886
0.050054
0.111226
-0.038104
0.089332
-0.061852
0.105469
-0.020375
-0.062403
-0.085335
-0.022233
0.001463
0.004972
0.011295
-0.096902
0.019094
0.046092
-0.078075
-0.064837
-0.046818
0.080583
0.039397
0.057241
0.038482
-0.099942
-0.070193
-0.027433
-0.056472
-0.033271
0.112096
0.057100
0.116530
-0.071830
-0.039989
0.002597
-0.001915
0.035519
-0.026340
-0.021036
0.025355
-0.028102
-0.056041
-0.051917
0.053969
-0.090738
0.003751
0.013496
-0.067335
0.082388
-0.038984
-0.096534
0.037362
-0.030099
0.038505
-0.109721
-0.018799
0.046868
0.106375
-0.166403
0.101746
0.061191
0.126801
-0.009915
-0.128640
-0.078802
0.074922
0.070889
-0.038527
-0.130220
0.142859
-0.087851
0.043441
0.077729
-0.099290
-0.034722
0.007190
-0.035091
0.042390
-0.074316
0.114888
0.019130
0.055120
0.052046
0.096402
0.052446
-0.048414
-0.007111
-0.055108
-0.022691
0.027007
0.021450
0.046290
0.090196
0.021149
0.037792
0.054073
-0.005882
0.056309
-0.005611
0.013982
0.030202
-0.060535
0.080204
0.048506
0.040033
0.001618
-0.060593
-0.011100
-0.042985
-0.007882
-0.009298
0.006280
-0.152225
-0.099784
0.020279
0.026116
-0.085040
0.051898
-0.000513
-0.045993
-0.075642
-0.055534
-0.062765
-0.046635
0.126848
0.041913
-0.084085
0.060895
0.061272
-0.052968
-0.020575
0.051523
0.050825
-0.065678
0.004833
-0.014206
0.062674
0.006155
-0.051523
-0.029717
0.107016
0.084430
0.071566
0.047365
0.043371
0.012661
-0.014814
0.016572
0.078293
0.023571
-0.050033
0.077689
-0.118509
-0.084376
-0.186182
-0.020927
-0.077052
0.036417
0.050806
-0.069951
-0.085337
0.131544
-0.023151
0.001911
0.010363
0.006421
-0.113402
0.062968
-0.037127
0.124570
0.099445
0.048521
0.001624
-0.106362
-0.062395
0.070123
0.108728
0.074288
-0.073893
-0.004698
0.089327
0.008450
0.076161
-0.105412
0.178433
-0.049689
0.023648
-0.033078
0.141442
-0.031907
-0.045583
0.068324
-0.075117
0.074319
0.040633
-0.002377
-0.002459
0.084108
-0.151099
-0.054865
-0.002070
-0.120868
-0.018964
-0.048261
-0.029632
0.017530
-0.031374
0.080445
-0.064017
-0.065787
0.025251
-0.030855
-0.093381
0.089248
0.030903
-0.022474
0.083063
0.070475
0.003666
0.092433
0.004762
-0.089943
0.004428
0.010567
0.028317
-0.080904
-0.075812
-0.027563
-0.077679
0.075460
-0.006407
-0.094707
-0.051665
-0.028195
0.063157
-0.116097
0.039106
0.004344
-0.149580
-0.106584
-0.089993
0.014269
0.052029
-0.061608
0.138334
0.048312
0.095159
0.008279
0.080011
-0.032287
-0.002649
0.006965
0.045968
0.061766
0.095611
0.059455
-0.048530
0.073024
-0.083234
0.014959
-0.064463
-0.044515
-0.022263
-0.029499
-0.047178
0.057231
0.080306
-0.030846
0.009669
0.156494
-0.013689
-0.029148
0.092143
0.039495
0.079271
-0.033532
-0.015898
0.004615
0.000866
-0.004807
-0.014846
-0.067106
0.046904
-0.055495
0.053686
0.077973
-0.059760
-0.011139
0.033746
0.035215
-0.038894
-0.056887
-0.000135
-0.041349
0.058286
-0.013871
0.017761
-0.028459
0.027582
0.097395
0.050312
-0.096751
0.031214
0.102657
-0.064809
-0.063257
0.002877
0.021066
0.125989
0.060969
-0.005164
0.042350
-0.015510
-0.075386
-0.048153
-0.092204
0.026530
-0.056241
-0.095388
0.025703
0.033807
0.020340
0.052194
0.098721
0.071870
0.025396
0.051930
-0.006582
-0.022433
0.044490
0.060506
0.059014
0.054331
0.017428
-0.098482
-0.008538
0.015298
-0.091257
0.032528
0.022776
-0.003725
0.096628
-0.005869
-0.059006
-0.045292
0.106160
0.008419
0.071107
-0.042317
0.069787
0.134917
-0.118675
-0.061432
-0.035537
0.028951
0.038906
0.055052
0.128310
0.073702
-0.011491
0.035171
-0.046808
0.032980
0.013294
-0.034904
0.083756
-0.062413
-0.064153
0.028341
-0.042779
0.088158
0.009570
0.046894
-0.000535
-0.011847
-0.066360
-0.046293
-0.071087
0.073534
-0.081595
-0.068173
0.048703
0.051645
-0.027628
-0.096991
0.107260
-0.078007
-0.003714
0.019673
0.115637
0.000601
-0.003153
0.025615
0.039174
-0.028369
0.100032
-0.064010
0.063379
0.034436
-0.087674
-0.056786
-0.105438
-0.102081
0.101289
0.060786
-0.065245
0.110724
-0.072081
0.024568
0.008199
-0.012800
0.035314
-0.022460
0.042916
0.048562
0.027087
-0.026882
-0.001101
-0.141525
-0.120992
-0.003702
-0.035926
0.027409
0.095851
0.111462
0.044644
-0.088151
0.096213
0.103393
0.073303
0.061982
-0.080054
0.030223
-0.052280
-0.018926
0.057832
0.000125
-0.056883
-0.008679
0.085617
0.023227
-0.049966
0.085146
-0.088645
0.004466
0.041369
-0.040276
0.013480
0.127118
-0.038443
-0.044569
-0.076384
-0.004920
0.074184
-0.053110
0.060320
-0.108454
0.024484
-0.099187
-0.021272
0.001198
-0.080202
0.053600
0.067533
0.061346
-0.025314
0.081425
-0.017598
-0.030317
0.055839
-0.082409
0.091812
-0.072921
0.003161
0.006838
-0.078669
0.000072
-0.048190
0.001099
0.050571
0.062107
-0.017777
-0.001169
0.034875
-0.049656
0.050811
-0.038433
0.052216
0.046475
-0.042971
-0.056098
0.086250
-0.017123
0.036917
0.044875
0.103013
0.068274
0.004388
0.060506
0.030424
0.081685
0.063497
-0.064877
0.102580
0.051407
0.091470
-0.049530
0.058889
0.072008
-0.132950
0.076157
0.009305
0.053813
-0.015766
0.081521
-0.067355
0.092341
-0.025167
0.055890
0.139366
0.029954
0.018720
0.034415
-0.037486
0.088601
-0.064697
0.073204
0.062094
0.013889
-0.017792
-0.012454
0.064987
-0.015131
0.106990
0.049608
0.021970
-0.045344
-0.047128
-0.026774
-0.052279
-0.023332
0.087604
0.002764
-0.081122
0.035741
0.077002
-0.026983
-0.019973
-0.007552
0.048474
-0.057980
0.001810
0.074100
-0.045475
-0.002422
0.129745
0.121949
0.083567
-0.008522
-0.035233
0.049745
0.053778
-0.074839
-0.101844
0.019232
0.007935
-0.044845
-0.072107
0.008540
0.023156
0.050115
-0.091957
0.026758
-0.018353
0.054778
-0.067982
0.036967
-0.015243
0.014337
0.055056
0.084175
-0.069477
0.044731
0.072480
0.038569
-0.106326
-0.058423
-0.065490
0.039143
-0.077708
0.055729
0.093685
-0.020872
0.018001
0.033690
-0.047029
-0.092820
-0.064687
-0.086469
0.005441
-0.052842
0.098879
-0.045913
0.081958
0.037676
0.097357
-0.053252
0.001015
-0.089747
-0.047682
-0.051860
0.101259
-0.069725
-0.077322
-0.053560
0.087980
0.005267
0.099751
-0.020258
0.042384
0.101977
-0.022188
0.006550
-0.053925
0.042222
0.031130
-0.113898
-0.039561
0.052122
-0.116643
0.054485
0.077354
0.095782
0.013684
0.071835
0.048916
0.098432
-0.027736
-0.030846
-0.022383
0.002058
-0.128188
0.028024
-0.141425
0.126634
-0.019916
-0.087355
0.047976
0.031977
-0.024770
-0.037554
-0.104623
-0.061034
0.036830
-0.060520
0.082912
-0.043446
-0.004787
-0.020653
0.056899
0.071003
0.096131
-0.056718
0.044231
-0.039854
0.122040
-0.011364
-0.021355
-0.045809
-0.186542
-0.009407
0.092321
-0.036431
-0.126316
-0.059949
-0.098298
-0.018632
-0.055647
0.013102
-0.057072
0.034001
-0.080983
0.017046
0.001499
-0.037213
0.083603
0.007043
0.038259
-0.015498
-0.086917
-0.031218
0.066501
0.055857
-0.056010
-0.065283
-0.018736
0.010807
0.014550
-0.081549
0.024639
0.000460
-0.059909
-0.055515
-0.092723
0.073746
0.050507
-0.112343
0.075265
-0.063691
0.093575
-0.100216
0.046073
0.076997
-0.000941
0.002784
0.061148
-0.059391
0.009212
-0.072919
0.054932
0.082826
0.023892
-0.101907
-0.087404
0.018234
0.137304
-0.030135
-0.018644
0.035130
0.052979
0.049849
-0.034146
-0.146844
-0.069830
-0.033324
-0.010411
-0.080378
-0.023464
0.073739
-0.062116
-0.056079
0.089164
-0.017724
-0.026464
-0.040148
0.072142
-0.108439
0.095947
-0.104057
0.017527
-0.052088
0.073220
0.015128
-0.034950
0.001684
0.064197
0.010746
0.054849
-0.008829
-0.152238
-0.152095
-0.042982
0.135309
0.038902
0.144218
0.098960
-0.024844
-0.077886
0.050263
-0.056655
-0.075388
0.141857
-0.048254
0.040914
0.012778
0.062356
0.115179
0.033368
-0.035914
0.108655
-0.053394
-0.011618
0.010571
0.027584
-0.175082
0.135785
0.003009
0.047350
-0.000206
0.012594
-0.078962
-0.001736
-0.125048
0.089626
0.020972
-0.077595
-0.109258
0.031459
0.101253
0.009575
0.117236
0.085401
0.010650
0.064296
0.018805
-0.025218
-0.014307
0.163647
0.007062
-0.067796
0.037865
-0.093410
0.096948
0.082955
0.017124
-0.009679
0.047093
-0.181534
-0.001358
0.084042
0.067733
0.007573
0.020540
-0.059761
0.087792
-0.023243
-0.033545
0.109176
0.026856
-0.048913
0.034373
0.122415
0.115168
-0.077870
-0.029323
0.045990
-0.088322
0.131558
-0.044890
-0.004632
-0.083045
0.040332
0.079644
0.008553
-0.136161
-0.071878
-0.058397
-0.186586
-0.087356
0.038952
0.033507
-0.046997
0.018764
-0.096010
-0.052029
0.095065
-0.000279
-0.064510
-0.116880
-0.113176
-0.041928
-0.030614
0.078012
-0.011745
-0.108670
0.116091
0.154138
-0.056973
0.105024
-0.014279
0.048040
0.001867
0.075339
-0.091113
-0.219135
-0.016325
0.028017
0.057548
0.003001
-0.005082
-0.012726
0.006028
0.089716
-0.042932
0.176576
-0.036696
0.033880
0.000284
-0.001233
0.028231
0.031685
-0.007973
-0.094057
-0.125784
-0.030485
0.038056
0.047241
-0.034429
0.141026
0.021985
-0.073622
-0.092243
0.012644
0.062391
0.055935
0.087227
-0.050095
-0.039319
0.112015
-0.098225
0.084823
-0.033347
-0.043182
0.026720
0.048926
0.033138
0.107505
-0.063118
-0.109476
-0.105473
0.026537
0.133427
0.039591
0.133299
-0.042432
0.030714
0.012953
0.037683
-0.036497
0.000413
0.090252
0.074214
-0.095215
-0.016577
0.045068
0.061265
-0.022365
0.019889
-0.038457
0.000033
-0.080960
0.064698
-0.064828
-0.014819
0.070022
0.050225
0.114828
0.036376
-0.099786
-0.108638
-0.060928
-0.017350
0.108016
-0.104485
-0.055808
-0.083035
0.061263
0.036438
-0.078762
0.051677
0.002406
-0.055835
0.001109
-0.040509
-0.110023
0.084924
0.082867
0.073109
0.049823
0.030202
0.014631
-0.107783
-0.082039
0.107406
0.071631
-0.090254
0.071826
0.088880
-0.017445
0.052992
0.086442
0.106240
0.075140
-0.095297
-0.067366
0.087340
0.068861
-0.057777
-0.078375
0.002701
-0.069010
-0.082808
0.045745
0.003493
0.100140
0.052869
-0.036939
0.049254
0.139943
0.028408
-0.062538
0.017434
-0.033696
0.040655
0.035967
-0.061544
-0.052604
-0.055658
0.071103
0.089400
-0.033029
0.012112
0.092840
0.066933
0.040282
-0.007006
0.003643
0.009350
0.033476
0.078319
-0.077774
-0.051414
0.018607
-0.041712
-0.014676
-0.013529
0.058597
0.055710
0.077616
-0.045663
-0.063116
-0.049891
-0.019703
0.106495
0.065402
0.084346
-0.012609
-0.062620
-0.076569
-0.104140
-0.095062
0.022108
-0.017237
0.000689
-0.029242
0.065880
-0.027030
-0.019927
0.082860
-0.075017
0.048402
0.016271
0.008105
0.052144
0.018733
0.006328
0.007568
-0.000289
-0.028481
-0.084857
0.029385
0.032041
0.007588
-0.079317
-0.026763
-0.065784
0.020483
0.087056
0.010073
0.068569
-0.013085
-0.036573
0.024034
-0.082935
-0.056119
-0.019121
-0.001311
0.066414
-0.058927
0.082416
-0.062615
0.073423
-0.070886
-0.044220
-0.023110
0.018363
-0.066952
0.005851
0.028511
0.086263
-0.030324
0.071094
0.059241
-0.084269
0.096949
-0.111901
0.063036
0.024287
-0.139391
0.062081
0.058702
0.007984
0.057118
0.007277
0.041663
-0.013048
-0.054933
-0.068065
-0.070244
0.046198
0.009714
-0.033860
0.074427
-0.052522
0.039504
0.015609
0.107789
0.016560
0.041059
-0.082445
-0.120292
0.056613
-0.026127
0.020761
0.051886
0.062255
0.068288
0.024598
-0.037704
-0.029550
0.086801
0.004005
0.052053
-0.012490
-0.072039
0.028000
0.029870
0.075941
-0.083912
0.044233
0.101346
0.056260
0.077615
0.076248
-0.078734
-0.056750
-0.030929
0.019596
0.069106
0.006656
-0.087095
0.076920
0.010173
-0.048884
0.013145
0.073902
-0.063405
0.010891
-0.091169
-0.063829
0.046446
-0.053164
0.115819
-0.039733
0.090163
-0.046967
-0.068225
-0.073141
-0.078528
-0.016501
-0.059540
-0.028071
0.049027
0.071608
0.013283
0.078696
-0.030654
-0.064382
0.107899
-0.077730
0.026799
0.050742
-0.003279
-0.055425
-0.059731
0.041965
0.044929
0.140950
0.031575
0.043782
-0.024065
0.068611
-0.005229
-0.013217
-0.022001
-0.019975
0.010410
0.032516
0.016970
-0.050923
0.053761
0.046626
0.050364
0.054959
0.058875
0.016650
-0.017863
-0.003792
-0.028650
-0.063500
-0.026146
-0.017146
0.012865
-0.098498
0.018508
0.051854
0.026762
0.019658
0.011696
-0.033215
-0.093424
0.102305
0.056702
-0.068043
0.069737
0.085748
-0.057857
-0.017248
0.003473
-0.064310
-0.090794
0.114830
-0.053301
-0.099694
-0.061116
0.015191
0.030403
-0.084890
-0.051435
-0.081901
-0.037764
-0.068300
-0.075703
0.130722
-0.056526
-0.042804
0.099016
-0.058719
0.023754
0.096310
-0.015879
-0.025495
0.056225
0.052343
-0.045247
0.066736
-0.077468
-0.015089
-0.050601
0.022795
0.102232
-0.047835
-0.042196
0.115794
-0.074179
-0.010717
0.021580
0.053219
0.000651
-0.061479
0.041823
-0.070423
0.023171
0.088878
0.062392
0.046466
-0.021903
-0.003997
-0.054460
0.013085
0.053080
-0.083422
0.050480
0.020570
-0.156942
0.031794
0.081655
-0.033298
-0.068294
0.055363
-0.005316
-0.079457
0.096748
-0.036230
0.041820
0.032650
0.000996
-0.046243
-0.014378
-0.064786
0.031393
-0.065699
0.073131
-0.007470
0.037112
0.094853
0.008704
-0.082704
0.073250
-0.069994
0.087001
-0.060499
-0.058955
0.006231
0.049137
-0.094456
0.026702
0.025282
0.041285
0.049464
-0.045556
-0.005223
0.092262
0.092892
-0.080979
0.081500
-0.006962
0.151206
0.049024
-0.035180
0.035378
0.003384
-0.051745
0.042968
-0.003919
0.014069
0.011984
-0.005884
0.001488
0.027031
-0.079674
-0.029922
-0.097678
0.065537
-0.077182
0.065836
0.025083
0.000157
0.074129
0.064562
-0.054278
-0.019990
0.070481
-0.082839
-0.073471
-0.051455
0.028234
0.025983
0.004223
-0.067428
-0.073682
0.075589
0.073191
-0.012943
0.024551
-0.052194
0.004978
0.117971
-0.091017
0.000268
0.105182
0.060977
-0.094196
0.027312
0.003180
0.084022
0.015605
0.090388
0.067944
-0.058699
-0.066883
-0.054973
-0.003673
0.081678
-0.105529
-0.053862
-0.068453
-0.005137
-0.070590
-0.099226
-0.013683
0.001280
0.052760
0.013145
-0.036945
0.061027
0.022142
0.013277
0.024022
0.045974
0.077500
0.046644
-0.093384
0.079477
-0.064883
0.048139
-0.078674
0.061493
-0.005251
0.030169
0.065471
-0.045495
-0.040715
-0.031470
-0.041742
0.086972
0.013885
0.090718
0.055096
-0.046438
0.040095
-0.076443
-0.030560
0.033377
-0.081466
0.042211
0.031235
-0.109038
-0.045828
-0.000068
0.009967
0.090586
-0.042037
-0.031747
0.037801
-0.070471
-0.041981
0.038404
-0.057547
-0.011685
0.002881
-0.045883
0.002585
-0.083046
-0.005309
-0.020411
0.040567
-0.106357
-0.083285
0.090096
-0.011635
-0.008520
-0.051864
0.078241
-0.062346
0.038659
-0.034684
0.046169
0.050759
0.068058
-0.046737
0.001887
-0.037159
0.048761
-0.032151
-0.062580
-0.033034
-0.010544
0.037175
0.072347
0.066272
0.041895
0.096507
0.082033
0.087317
0.010258
0.131867
-0.063639
0.031132
-0.063982
0.062402
0.013807
-0.029661
-0.035719
0.086831
-0.064093
-0.058765
-0.046345
-0.043288
0.015594
-0.006490
-0.089887
0.016368
-0.078366
-0.010002
0.012045
0.043077
-0.035046
0.082106
0.032551
0.054684
-0.066128
-0.042961
0.036769
-0.061223
-0.007304
0.000324
0.057522
-0.044199
-0.059272
-0.116504
0.032875
-0.064293
-0.047340
0.067621
0.049756
0.101394
-0.076122
0.049019
-0.102477
0.070290
-0.065950
0.022236
0.021586
0.063569
0.021497
0.089303
0.089129
0.058495
0.048491
0.099371
0.094842
-0.060877
-0.055914
0.085270
-0.006900
-0.084050
0.082764
0.087935
0.032531
0.011411
0.004706
0.078572
0.041821
0.004486
0.057921
-0.112372
0.006819
-0.064522
-0.023642
0.001605
-0.109466
-0.020815
-0.051372
-0.086306
0.023914
0.000171
0.009116
-0.051141
0.017970
-0.022149
-0.073901
0.077950
-0.001780
0.084504
0.038733
0.063582
-0.010447
0.065598
-0.037436
-0.020547
0.076023
0.068694
-0.024090
-0.074378
0.045946
-0.031315
0.004149
-0.000276
-0.065365
-0.038053
0.115799
0.056152
0.035509
-0.022760
0.081272
0.004796
0.055431
-0.046486
0.113474
0.083473
-0.024069
-0.057523
-0.101674
0.020793
-0.110518
-0.129049
-0.095096
-0.050884
-0.014442
0.049628
-0.081862
-0.041934
-0.079457
0.031816
-0.021253
0.088560
-0.033975
0.087466
0.016108
0.051905
-0.067468
0.049732
-0.033362
0.068194
0.067662
-0.011055
-0.057703
-0.068032
0.033571
-0.001442
0.060756
-0.091583
0.054024
0.004963
-0.070541
-0.029270
0.028409
0.006241
-0.054902
-0.030998
0.029803
0.064361
-0.037644
0.007548
-0.017872
-0.054540
-0.002578
-0.068939
0.008248
0.045155
-0.004928
-0.087044
-0.016308
-0.051662
0.044194
-0.017549
0.048467
-0.034117
0.009985
0.090113
-0.030387
-0.027658
0.026209
-0.052817
0.067319
0.000114
0.041567
-0.069244
0.037786
-0.026435
-0.044296
0.035750
0.075776
0.029050
-0.050168
-0.067952
-0.068853
0.027244
0.021993
-0.004697
0.030324
0.033137
-0.029918
0.003816
0.056276
0.022604
0.065427
-0.050281
0.010638
-0.089121
-0.055925
0.017201
-0.088524
-0.023840
0.087181
-0.044916
-0.019561
-0.032678
-0.046029
0.036373
0.013043
0.024777
-0.020443
0.090385
0.005834
0.046453
0.015247
-0.075684
-0.029775
0.052961
0.067323
-0.038281
0.014526
-0.016630
0.055086
0.056239
-0.060789
0.031492
-0.093031
-0.001370
0.079607
-0.053588
-0.057803
-0.000288
-0.012854
-0.075459
-0.006784
-0.079633
0.044394
-0.069406
-0.008809
0.013891
-0.075816
0.012711
-0.087542
0.013031
0.054656
-0.006801
0.039216
0.005241
-0.021792
-0.053895
-0.060464
0.024207
0.017558
-0.082109
-0.007410
-0.031769
-0.028207
0.066342
-0.074766
0.081012
0.041156
-0.000618
-0.042544
0.045722
0.064928
0.085762
-0.083898
0.054439
0.005694
0.043716
0.048279
0.076246
-0.036495
0.019956
0.073066
-0.050635
-0.054551
-0.052652
-0.056468
-0.089778
0.068614
-0.069996
0.037699
-0.084325
0.078924
0.007683
0.011355
0.029600
0.076445
